34 128
34 -0.160907 -0.159071 0.068052 -0.005427 0.013294 -0.092616 0.104343 -0.095225 -0.011323 0.042472 -0.037180 0.148615 0.013545 -0.160055 -0.006093 -0.196860 -0.060187 -0.152815 -0.048786 -0.043977 0.149353 0.095756 0.100830 0.066403 -0.022622 -0.045681 0.011296 0.082773 0.007536 0.041092 -0.114400 0.154244 -0.125758 0.048445 -0.087264 -0.086428 0.169015 0.092702 -0.002257 -0.190266 -0.282246 0.090560 0.142435 0.142082 -0.112267 0.079165 0.043821 -0.048516 -0.079048 0.047760 -0.080649 0.253974 -0.021089 0.124131 -0.171660 -0.123801 -0.090496 -0.047346 -0.113415 0.005883 0.170794 -0.148350 -0.157514 0.094571 -0.071028 -0.153022 -0.057017 0.094535 -0.054498 -0.178925 0.065927 -0.014289 0.043861 -0.020735 0.131101 -0.083949 0.160444 0.039371 0.001981 0.053206 -0.014825 -0.164248 -0.038074 -0.264150 -0.114834 0.164096 -0.089122 -0.021871 -0.014856 -0.046923 0.037918 0.141426 0.124379 -0.068986 -0.098852 0.204708 -0.074187 -0.028178 0.059492 -0.066283 -0.253015 0.067997 -0.160868 -0.078375 0.018210 0.103832 0.182507 0.121862 -0.013042 -0.099458 0.047127 -0.072698 -0.053193 0.038656 -0.018069 0.083598 -0.146465 0.271494 -0.113942 0.047218 -0.118403 -0.163815 -0.049254 -0.170381 -0.027424 0.125788 -0.067842 0.218782
1 -0.155321 -0.208635 0.082524 -0.039654 -0.013972 -0.157504 0.062401 0.037804 0.097349 0.037957 -0.018249 0.197668 0.048819 -0.208634 0.067625 -0.231518 -0.101100 -0.191127 -0.014010 -0.139390 0.159385 0.058121 0.086033 0.065723 0.075691 0.007985 0.036755 0.091171 0.036883 0.014650 -0.124500 0.149564 -0.134566 0.019618 -0.018694 -0.120219 0.110277 0.043633 -0.011255 -0.195964 -0.248965 -0.000271 0.175702 0.174425 -0.160966 0.059475 0.051921 -0.047078 0.005876 0.092201 -0.176333 0.215854 -0.051294 0.157764 -0.141411 -0.100479 -0.062415 0.010572 -0.098786 -0.039230 0.224159 -0.175699 -0.088159 0.054397 -0.120091 -0.030606 -0.047224 0.115387 -0.098520 -0.197221 0.010273 -0.012777 0.032667 -0.030497 0.201476 -0.029979 0.194057 -0.006521 -0.002068 -0.058877 -0.023505 -0.090102 -0.051990 -0.153478 -0.131785 0.005824 0.004668 -0.054880 0.067671 -0.002652 0.077567 0.061685 0.122755 -0.021814 -0.140311 0.116281 -0.014525 -0.158667 0.094215 0.058057 -0.213485 0.030641 -0.124360 -0.023872 -0.039911 0.091500 0.109514 0.155757 -0.017735 -0.108935 0.013497 0.008722 -0.034771 0.055606 -0.069530 0.070044 -0.102874 0.215974 -0.160396 -0.001863 -0.084969 -0.073091 -0.006934 -0.205088 -0.122262 0.043843 -0.009330 0.198027
33 -0.157019 -0.164200 0.067992 -0.007698 0.009131 -0.099913 0.095626 -0.073071 0.007222 0.042136 -0.028896 0.153091 0.015826 -0.163820 0.007344 -0.192682 -0.067853 -0.154555 -0.049953 -0.058323 0.150176 0.087751 0.096739 0.064224 -0.013604 -0.035601 0.008103 0.080002 0.013058 0.036165 -0.113198 0.147427 -0.118127 0.044429 -0.083270 -0.092397 0.155394 0.083250 -0.008001 -0.186425 -0.274965 0.078724 0.142503 0.138138 -0.115364 0.081523 0.043221 -0.047272 -0.071695 0.049692 -0.091512 0.247681 -0.026358 0.121778 -0.166357 -0.112670 -0.088044 -0.039318 -0.105726 0.004961 0.177700 -0.152400 -0.145426 0.088812 -0.068748 -0.135017 -0.048875 0.092458 -0.057697 -0.165928 0.061792 -0.013966 0.043559 -0.019343 0.126484 -0.069647 0.158599 0.029010 0.001572 0.038344 -0.008662 -0.145836 -0.036862 -0.237643 -0.111074 0.140154 -0.076194 -0.025592 -0.005069 -0.041733 0.043751 0.128511 0.117856 -0.059367 -0.090212 0.187514 -0.063169 -0.043415 0.063743 -0.053478 -0.235918 0.056048 -0.150424 -0.061960 0.017371 0.095190 0.163524 0.118488 -0.008900 -0.095329 0.041340 -0.060656 -0.048161 0.032060 -0.018750 0.079215 -0.134534 0.244348 -0.112793 0.033714 -0.106317 -0.146126 -0.041577 -0.163003 -0.028793 0.106518 -0.063571 0.198624
3 -0.153660 -0.171947 0.072748 -0.023511 -0.000053 -0.118917 0.080184 -0.029636 0.033597 0.037972 -0.023152 0.162621 0.025363 -0.179400 0.026967 -0.207551 -0.074632 -0.165950 -0.033599 -0.090448 0.145367 0.076728 0.084244 0.068010 0.026342 -0.018772 0.022490 0.090411 0.028222 0.028595 -0.117701 0.141216 -0.129873 0.038839 -0.054363 -0.101516 0.136800 0.068122 -0.003408 -0.185111 -0.256174 0.040985 0.152328 0.155722 -0.128890 0.067961 0.048991 -0.049151 -0.044298 0.066191 -0.118943 0.221158 -0.037663 0.138273 -0.158996 -0.108199 -0.075463 -0.017984 -0.103410 -0.009163 0.186778 -0.153396 -0.121853 0.072744 -0.090287 -0.089869 -0.046619 0.104082 -0.070918 -0.180156 0.037701 -0.010787 0.037210 -0.023089 0.157118 -0.054150 0.178260 0.013935 0.005010 -0.001570 -0.016834 -0.120930 -0.045481 -0.202388 -0.115580 0.088073 -0.040801 -0.037711 0.020993 -0.027274 0.051769 0.099777 0.113628 -0.047397 -0.117729 0.158274 -0.048713 -0.083973 0.073470 -0.005315 -0.227633 0.045624 -0.138749 -0.049299 -0.006818 0.095697 0.137542 0.129893 -0.012333 -0.101768 0.031470 -0.032988 -0.042195 0.043017 -0.040681 0.076021 -0.121643 0.236402 -0.126753 0.022436 -0.100798 -0.116957 -0.031329 -0.180476 -0.070493 0.083382 -0.038032 0.203017
2 -0.163958 -0.196333 0.078395 -0.037843 -0.003903 -0.144053 0.079458 -0.011617 0.045332 0.041675 -0.024290 0.185031 0.041646 -0.201522 0.036273 -0.230611 -0.091256 -0.176067 -0.028037 -0.109386 0.166185 0.079498 0.091518 0.070209 0.028893 -0.009099 0.029593 0.101293 0.041897 0.025247 -0.124163 0.146648 -0.141227 0.044540 -0.055491 -0.107254 0.137765 0.059247 0.000628 -0.201417 -0.260340 0.033872 0.161915 0.164263 -0.137752 0.070407 0.044412 -0.051926 -0.029265 0.064251 -0.139125 0.215883 -0.036944 0.157974 -0.175894 -0.103054 -0.064410 -0.007656 -0.110470 -0.007590 0.200492 -0.158095 -0.123049 0.061573 -0.101362 -0.067592 -0.052629 0.103113 -0.083670 -0.180270 0.025132 -0.013477 0.049125 -0.028414 0.167675 -0.042478 0.193809 0.007062 0.006768 -0.016279 -0.024739 -0.127408 -0.053760 -0.199534 -0.118813 0.077923 -0.030570 -0.051652 0.038579 -0.027664 0.063672 0.095173 0.117664 -0.056829 -0.131777 0.154607 -0.049448 -0.111459 0.075203 0.013800 -0.235362 0.037358 -0.135037 -0.043246 -0.013126 0.094984 0.142481 0.147193 -0.022159 -0.107783 0.025636 -0.026646 -0.037109 0.049938 -0.059218 0.073623 -0.119003 0.245305 -0.145776 0.011882 -0.103331 -0.113896 -0.030006 -0.200896 -0.078583 0.082254 -0.030852 0.210761
32 -0.161413 -0.163598 0.064285 -0.008743 0.007293 -0.090793 0.103484 -0.090475 -0.001586 0.043096 -0.032971 0.152332 0.011624 -0.157107 -0.000908 -0.191113 -0.065041 -0.159199 -0.055178 -0.050239 0.149954 0.094368 0.095598 0.066908 -0.024372 -0.039926 0.003933 0.081259 0.007946 0.033914 -0.115582 0.148424 -0.111261 0.042498 -0.091459 -0.091039 0.166477 0.091466 -0.006347 -0.195636 -0.285881 0.085039 0.138865 0.139167 -0.114285 0.084898 0.044634 -0.042008 -0.078911 0.043668 -0.087010 0.257216 -0.027129 0.121320 -0.168518 -0.118813 -0.092264 -0.048834 -0.112902 0.006669 0.174650 -0.151019 -0.150875 0.096178 -0.072213 -0.148148 -0.055838 0.099111 -0.060332 -0.176737 0.063822 -0.012247 0.046128 -0.024543 0.127616 -0.078763 0.159933 0.034172 -0.003909 0.047576 -0.010817 -0.158114 -0.033170 -0.253527 -0.118329 0.157616 -0.085462 -0.022726 -0.009963 -0.049743 0.043633 0.138480 0.128280 -0.063429 -0.088546 0.197041 -0.064699 -0.035703 0.059194 -0.067331 -0.244824 0.061906 -0.164704 -0.071776 0.025838 0.106417 0.179345 0.120437 -0.012217 -0.097128 0.046643 -0.071444 -0.050885 0.036336 -0.015611 0.084378 -0.144630 0.263918 -0.109091 0.037601 -0.115018 -0.161384 -0.049104 -0.166113 -0.021928 0.114643 -0.073518 0.213694
4 -0.149629 -0.168740 0.069755 -0.021574 0.000557 -0.119943 0.075361 -0.026037 0.038774 0.036099 -0.020186 0.165401 0.031739 -0.176043 0.026893 -0.202792 -0.077243 -0.164119 -0.031557 -0.085105 0.149031 0.073834 0.083610 0.063905 0.023007 -0.015690 0.017751 0.085864 0.025220 0.023933 -0.115963 0.139423 -0.124575 0.032993 -0.055903 -0.100027 0.138462 0.066703 -0.005028 -0.185145 -0.255316 0.040862 0.152637 0.154358 -0.125246 0.067414 0.044816 -0.048432 -0.042248 0.059533 -0.118723 0.221245 -0.034306 0.135580 -0.155293 -0.103161 -0.070624 -0.019771 -0.100984 -0.013099 0.192312 -0.156048 -0.117666 0.071654 -0.086947 -0.084830 -0.052962 0.101444 -0.073289 -0.176017 0.037183 -0.009624 0.040630 -0.028092 0.156477 -0.053908 0.173593 0.016486 -0.001891 0.003940 -0.014138 -0.125972 -0.044506 -0.197723 -0.115175 0.085203 -0.039679 -0.039969 0.025737 -0.026026 0.051777 0.097478 0.114296 -0.046483 -0.112484 0.156585 -0.046829 -0.088809 0.071062 -0.006371 -0.228196 0.045460 -0.134110 -0.043456 -0.010007 0.096006 0.138330 0.134300 -0.015919 -0.100590 0.033701 -0.034627 -0.041975 0.042859 -0.041908 0.076930 -0.122397 0.236262 -0.131087 0.022315 -0.097321 -0.115085 -0.033272 -0.184864 -0.070251 0.084767 -0.037505 0.203938
14 -0.148305 -0.175207 0.074754 -0.027216 -0.002996 -0.116973 0.073012 -0.024997 0.041638 0.040465 -0.026893 0.166736 0.028915 -0.177997 0.032855 -0.201798 -0.077678 -0.164725 -0.029844 -0.093053 0.148752 0.075460 0.085377 0.066731 0.027254 -0.010827 0.023492 0.087245 0.018348 0.028986 -0.111247 0.143794 -0.123929 0.032686 -0.046650 -0.102519 0.128937 0.062646 -0.008182 -0.183765 -0.256713 0.037888 0.152124 0.155271 -0.131782 0.070921 0.045421 -0.043002 -0.036530 0.070783 -0.129735 0.223344 -0.038310 0.136653 -0.147726 -0.105532 -0.076982 -0.014466 -0.105341 -0.018092 0.192344 -0.161401 -0.109400 0.067202 -0.095874 -0.082294 -0.046240 0.101481 -0.078140 -0.185608 0.032063 -0.007438 0.032436 -0.022249 0.168328 -0.050873 0.175104 0.013280 -0.002219 -0.009587 -0.017659 -0.118113 -0.043377 -0.192068 -0.124178 0.080941 -0.039963 -0.040346 0.029933 -0.024783 0.058191 0.093304 0.120372 -0.042843 -0.117191 0.155077 -0.043306 -0.091333 0.078418 0.000551 -0.228221 0.044306 -0.140786 -0.042253 -0.013435 0.097231 0.140932 0.140857 -0.016595 -0.105297 0.024274 -0.031039 -0.045803 0.044302 -0.040957 0.073754 -0.126347 0.231366 -0.135776 0.021714 -0.098919 -0.115333 -0.027464 -0.189078 -0.073113 0.077707 -0.038369 0.202142
24 -0.148554 -0.136466 0.062295 0.001295 0.015334 -0.071632 0.104376 -0.116183 -0.028260 0.044203 -0.032265 0.129907 0.007570 -0.142141 -0.021121 -0.176887 -0.052567 -0.137726 -0.055811 -0.026661 0.140985 0.098175 0.094351 0.069948 -0.045856 -0.047351 -0.001065 0.072582 0.000498 0.041288 -0.108737 0.138676 -0.112817 0.046912 -0.102206 -0.077430 0.170918 0.091138 0.000492 -0.187056 -0.274311 0.107907 0.123797 0.125652 -0.092960 0.086994 0.034057 -0.038668 -0.092311 0.029895 -0.052489 0.251302 -0.021346 0.113783 -0.166607 -0.110418 -0.087904 -0.056631 -0.112661 0.019735 0.150674 -0.136774 -0.160820 0.095871 -0.056183 -0.168399 -0.055405 0.086351 -0.047868 -0.152882 0.076833 -0.013715 0.045929 -0.018402 0.099222 -0.088466 0.139956 0.036686 0.000582 0.076798 -0.004907 -0.163048 -0.030797 -0.261421 -0.105967 0.180736 -0.108412 -0.011329 -0.027155 -0.055860 0.027261 0.149164 0.116567 -0.073174 -0.072049 0.209648 -0.075388 0.001526 0.046073 -0.092361 -0.241206 0.071930 -0.151028 -0.078379 0.035889 0.103188 0.185725 0.107055 -0.010473 -0.086093 0.055502 -0.090054 -0.054064 0.028300 -0.009197 0.079333 -0.147618 0.259411 -0.093156 0.052864 -0.116857 -0.174941 -0.058184 -0.153208 0.006921 0.134668 -0.079639 0.208751
8 -0.144878 -0.185222 0.074616 -0.031366 -0.010985 -0.131186 0.067684 0.004528 0.061054 0.040423 -0.021086 0.171814 0.035145 -0.184692 0.048851 -0.210648 -0.084163 -0.166647 -0.018037 -0.106830 0.145735 0.064047 0.080654 0.059167 0.046370 0.002004 0.028431 0.087421 0.029011 0.023233 -0.112992 0.136108 -0.123022 0.029851 -0.035331 -0.104033 0.119344 0.049324 -0.004145 -0.177071 -0.238719 0.020273 0.149373 0.156937 -0.133628 0.066456 0.042594 -0.044931 -0.018137 0.073420 -0.143517 0.200880 -0.037520 0.142977 -0.145012 -0.094510 -0.065012 -0.005568 -0.097889 -0.024327 0.191463 -0.156809 -0.097023 0.058159 -0.097828 -0.057932 -0.042916 0.100191 -0.081662 -0.177512 0.017469 -0.011346 0.031844 -0.025284 0.169901 -0.035683 0.173540 0.003449 0.000531 -0.027738 -0.017392 -0.103808 -0.049266 -0.165626 -0.120437 0.049085 -0.014486 -0.045857 0.043408 -0.018125 0.064988 0.071942 0.113129 -0.035648 -0.122752 0.127373 -0.031515 -0.120459 0.075719 0.021699 -0.208699 0.030880 -0.129188 -0.032915 -0.018818 0.085187 0.119009 0.133732 -0.016925 -0.103441 0.017029 -0.010211 -0.034783 0.045983 -0.058495 0.070712 -0.110109 0.211963 -0.140206 0.009086 -0.090986 -0.094834 -0.015182 -0.185170 -0.086263 0.057941 -0.020651 0.186883
28 -0.151494 -0.152891 0.069083 -0.008878 0.006297 -0.082459 0.094649 -0.085538 -0.004774 0.039680 -0.029930 0.142812 0.012238 -0.147155 -0.003550 -0.182967 -0.062492 -0.150643 -0.044186 -0.046003 0.137568 0.085769 0.090943 0.065530 -0.021424 -0.033505 0.002173 0.075733 0.008893 0.034554 -0.107918 0.142775 -0.106921 0.041103 -0.083095 -0.089099 0.155271 0.083733 -0.002288 -0.180764 -0.266039 0.075574 0.132773 0.134384 -0.108355 0.078832 0.034470 -0.041019 -0.077498 0.044152 -0.085372 0.241156 -0.022750 0.110566 -0.152446 -0.110519 -0.088311 -0.047337 -0.111801 0.006736 0.162819 -0.145955 -0.135030 0.089727 -0.066140 -0.140090 -0.051381 0.095258 -0.061427 -0.169871 0.060117 -0.010718 0.037850 -0.024795 0.123815 -0.076396 0.151820 0.033622 -0.005857 0.046603 -0.010018 -0.151713 -0.032766 -0.239231 -0.113343 0.149992 -0.081462 -0.018814 -0.009227 -0.043791 0.041834 0.128943 0.117430 -0.061686 -0.084438 0.185221 -0.062787 -0.031963 0.059570 -0.062458 -0.236780 0.065648 -0.156450 -0.068863 0.023347 0.102528 0.172127 0.121027 -0.006555 -0.097678 0.042868 -0.064364 -0.054396 0.032073 -0.017523 0.075597 -0.140649 0.246713 -0.108188 0.034961 -0.108753 -0.151724 -0.046382 -0.160474 -0.027656 0.108388 -0.065065 0.203336
7 -0.129284 -0.211054 0.072047 -0.033938 -0.034081 -0.151934 0.047930 0.081523 0.148420 0.032085 -0.011871 0.210817 0.049429 -0.212328 0.106995 -0.225746 -0.116429 -0.207234 -0.014950 -0.164172 0.152369 0.035378 0.087478 0.061190 0.121648 0.016774 0.028284 0.065891 0.020204 0.009145 -0.109332 0.151655 -0.123642 -0.014940 0.014685 -0.128359 0.086296 0.030971 -0.036041 -0.184135 -0.244122 -0.022648 0.187794 0.180470 -0.190707 0.061596 0.066269 -0.040405 0.035771 0.117566 -0.213384 0.224453 -0.063369 0.150012 -0.100041 -0.103830 -0.066656 0.017985 -0.082533 -0.069203 0.249466 -0.192011 -0.042498 0.055396 -0.132842 0.002581 -0.038925 0.127073 -0.108084 -0.220063 -0.002786 -0.002828 0.004071 -0.030927 0.237060 -0.013165 0.177190 -0.013965 -0.018698 -0.098946 -0.017638 -0.038651 -0.050196 -0.096052 -0.143084 -0.061899 0.037436 -0.051810 0.088668 0.021519 0.096625 0.028366 0.133067 0.016957 -0.142144 0.079145 0.028121 -0.199898 0.106228 0.098399 -0.179053 0.019517 -0.126790 -0.005685 -0.067118 0.075795 0.074037 0.161836 -0.004909 -0.112132 0.000946 0.054893 -0.036131 0.045407 -0.075714 0.069650 -0.092317 0.176027 -0.171252 -0.010405 -0.065804 -0.035704 0.030713 -0.208803 -0.165135 0.003718 0.015979 0.183642
9 -0.154457 -0.169138 0.065912 -0.020241 0.000075 -0.111967 0.084745 -0.042173 0.033402 0.039800 -0.026030 0.166816 0.025783 -0.178306 0.020292 -0.202523 -0.077475 -0.159406 -0.039057 -0.077938 0.145223 0.082233 0.093709 0.062132 0.009981 -0.021250 0.015515 0.078535 0.018000 0.030177 -0.113343 0.147830 -0.125945 0.033442 -0.060884 -0.099506 0.145563 0.070115 -0.009694 -0.186919 -0.266931 0.051899 0.150424 0.151801 -0.126672 0.070636 0.045097 -0.047462 -0.049766 0.055330 -0.113528 0.233233 -0.035324 0.131807 -0.153487 -0.108424 -0.078488 -0.026289 -0.104590 -0.008931 0.184993 -0.153408 -0.130120 0.078879 -0.081254 -0.105292 -0.048999 0.100185 -0.071334 -0.175883 0.048083 -0.010345 0.044699 -0.024768 0.152338 -0.061895 0.166164 0.022816 -0.002090 0.015592 -0.011485 -0.132213 -0.045830 -0.218422 -0.118403 0.101414 -0.054668 -0.034016 0.013888 -0.030735 0.055330 0.108452 0.122161 -0.045262 -0.107889 0.162885 -0.047198 -0.075645 0.069130 -0.019397 -0.234762 0.046375 -0.145333 -0.052873 0.001439 0.095933 0.146472 0.133458 -0.016734 -0.102521 0.038882 -0.040728 -0.042039 0.039610 -0.036429 0.075487 -0.132234 0.245500 -0.128878 0.030386 -0.105147 -0.128534 -0.035985 -0.177964 -0.058218 0.095825 -0.044745 0.206299
6 -0.132348 -0.224233 0.079622 -0.033644 -0.037412 -0.162293 0.045621 0.100005 0.162529 0.034058 -0.006208 0.223602 0.051749 -0.221750 0.120250 -0.237053 -0.128050 -0.219825 -0.006985 -0.181373 0.153292 0.030934 0.087184 0.057357 0.136905 0.025210 0.034930 0.062573 0.023471 0.011649 -0.112018 0.147004 -0.124170 -0.018121 0.028776 -0.135448 0.084368 0.031534 -0.042383 -0.192811 -0.247236 -0.032020 0.199925 0.185638 -0.207441 0.062477 0.070152 -0.043918 0.047081 0.129753 -0.230416 0.228799 -0.073539 0.153588 -0.089243 -0.108986 -0.067086 0.024987 -0.084406 -0.085852 0.266375 -0.200795 -0.033444 0.051113 -0.143140 0.010402 -0.043295 0.132781 -0.122295 -0.233559 -0.004357 -0.004761 0.001264 -0.031034 0.258459 -0.009414 0.189347 -0.017713 -0.022526 -0.110462 -0.022462 -0.030056 -0.050819 -0.088069 -0.147227 -0.083126 0.053936 -0.058226 0.102533 0.024384 0.104321 0.022125 0.138834 0.028083 -0.151353 0.071346 0.036402 -0.222127 0.120351 0.113154 -0.177443 0.013622 -0.125224 0.000460 -0.078362 0.082774 0.070385 0.176835 -0.005510 -0.118712 -0.002791 0.065712 -0.036015 0.051303 -0.079735 0.074819 -0.089917 0.172636 -0.178967 -0.019349 -0.061627 -0.031881 0.037524 -0.224837 -0.181835 -0.002881 0.024302 0.179747
30 -0.151399 -0.154582 0.060702 0.000740 0.007239 -0.079145 0.108269 -0.105430 -0.015620 0.045632 -0.038072 0.144299 0.006890 -0.154466 -0.011394 -0.189689 -0.060169 -0.149352 -0.060254 -0.035735 0.147076 0.094814 0.101337 0.063564 -0.032200 -0.046926 0.005241 0.077245 -0.000799 0.039964 -0.113483 0.144610 -0.115560 0.043802 -0.097784 -0.082306 0.170710 0.094977 -0.001915 -0.195778 -0.286551 0.099649 0.138821 0.140351 -0.106807 0.086837 0.041126 -0.048278 -0.089167 0.042642 -0.073081 0.263561 -0.020917 0.113513 -0.166386 -0.117889 -0.099580 -0.051794 -0.112429 0.011426 0.170114 -0.154154 -0.155968 0.099343 -0.058170 -0.163371 -0.056667 0.091212 -0.052805 -0.173780 0.075481 -0.013923 0.046548 -0.021878 0.117212 -0.087808 0.153698 0.039890 -0.002485 0.066965 -0.011762 -0.164769 -0.039471 -0.262597 -0.112843 0.174538 -0.101311 -0.014704 -0.021499 -0.050862 0.040505 0.142038 0.122719 -0.063422 -0.079868 0.205472 -0.074345 -0.014264 0.054923 -0.081352 -0.239606 0.066778 -0.160502 -0.082423 0.027537 0.102374 0.186335 0.118091 -0.016000 -0.096516 0.047330 -0.083325 -0.058370 0.027956 -0.007389 0.083798 -0.154161 0.267169 -0.109517 0.052767 -0.123055 -0.169127 -0.052684 -0.163145 -0.009142 0.130126 -0.070999 0.217367
29 -0.153297 -0.166299 0.067353 -0.019797 0.004453 -0.110350 0.086685 -0.053469 0.021197 0.040961 -0.025777 0.160263 0.021409 -0.169582 0.016046 -0.199057 -0.075137 -0.161364 -0.036386 -0.074401 0.147911 0.078085 0.085373 0.064156 0.002328 -0.026667 0.015856 0.080348 0.021772 0.031099 -0.109809 0.139348 -0.117768 0.036900 -0.069279 -0.092760 0.147415 0.073016 -0.002020 -0.190380 -0.255541 0.059980 0.140180 0.140946 -0.116188 0.076245 0.041648 -0.045547 -0.054659 0.056299 -0.104573 0.227405 -0.034028 0.128437 -0.160272 -0.102208 -0.072775 -0.025055 -0.102454 -0.002018 0.178962 -0.151278 -0.131792 0.076521 -0.082460 -0.109026 -0.055048 0.094724 -0.063511 -0.167026 0.043800 -0.013220 0.037840 -0.021081 0.143897 -0.058154 0.169477 0.021181 0.001820 0.017994 -0.018663 -0.130709 -0.037859 -0.219328 -0.112748 0.110909 -0.055490 -0.035916 0.011616 -0.037348 0.049778 0.108411 0.116283 -0.050099 -0.099895 0.172292 -0.055463 -0.063320 0.066145 -0.031011 -0.232029 0.054623 -0.142918 -0.054992 0.005130 0.097370 0.148662 0.123951 -0.012168 -0.095418 0.039615 -0.045940 -0.049021 0.038828 -0.035474 0.072573 -0.130565 0.239559 -0.118672 0.027652 -0.105247 -0.131392 -0.040039 -0.176575 -0.046619 0.097482 -0.049900 0.198753
20 -0.152105 -0.182408 0.073300 -0.024580 -0.007261 -0.127966 0.080087 -0.017173 0.047314 0.037565 -0.025421 0.170669 0.036086 -0.183897 0.034724 -0.211243 -0.086637 -0.170915 -0.031955 -0.100293 0.154614 0.070687 0.091571 0.066788 0.032935 -0.009423 0.025929 0.084294 0.025737 0.022379 -0.119831 0.144342 -0.122939 0.029165 -0.046366 -0.101715 0.134361 0.058963 -0.010608 -0.191692 -0.258368 0.033745 0.151510 0.155247 -0.132620 0.070103 0.049563 -0.044707 -0.031066 0.066487 -0.136588 0.225315 -0.036824 0.135481 -0.151343 -0.104405 -0.071958 -0.018372 -0.105290 -0.015120 0.199586 -0.157681 -0.110728 0.070153 -0.096041 -0.079735 -0.049076 0.106023 -0.080908 -0.178385 0.030427 -0.009829 0.034617 -0.026386 0.165489 -0.047058 0.176075 0.010752 -0.000017 -0.008758 -0.016514 -0.119216 -0.044423 -0.194865 -0.118804 0.075358 -0.036990 -0.039842 0.029079 -0.021114 0.061578 0.092238 0.120784 -0.041813 -0.115299 0.149297 -0.036146 -0.099900 0.074158 0.007397 -0.225223 0.040637 -0.141012 -0.039294 -0.012771 0.096267 0.134797 0.138099 -0.010974 -0.099257 0.025584 -0.023586 -0.040755 0.045722 -0.048105 0.071714 -0.116390 0.232288 -0.134842 0.017369 -0.096317 -0.105830 -0.024993 -0.187737 -0.075388 0.077304 -0.037651 0.200596
31 -0.152445 -0.166051 0.071959 -0.018081 0.001410 -0.111788 0.086727 -0.058660 0.013169 0.043532 -0.025208 0.164127 0.026682 -0.176603 0.014580 -0.206064 -0.078338 -0.156717 -0.037692 -0.074488 0.149755 0.082970 0.087561 0.068845 0.002625 -0.022919 0.020593 0.089928 0.020679 0.031116 -0.117496 0.147044 -0.128905 0.045106 -0.066740 -0.091305 0.146719 0.072380 0.001806 -0.195226 -0.265052 0.063660 0.145536 0.145642 -0.120080 0.074877 0.039276 -0.050229 -0.057398 0.055889 -0.108333 0.233173 -0.031497 0.130324 -0.161736 -0.108963 -0.076915 -0.030695 -0.111812 -0.005326 0.182918 -0.151680 -0.139215 0.073562 -0.083750 -0.113768 -0.055966 0.095526 -0.070057 -0.173737 0.048453 -0.015415 0.045419 -0.023097 0.146198 -0.062654 0.175685 0.021404 0.006429 0.024011 -0.014474 -0.140377 -0.045564 -0.227135 -0.113777 0.117915 -0.064454 -0.036617 0.009843 -0.040654 0.046111 0.118341 0.121722 -0.057049 -0.110198 0.173808 -0.060227 -0.064512 0.064974 -0.027835 -0.239446 0.050375 -0.144301 -0.061912 0.004736 0.099383 0.156922 0.131799 -0.014047 -0.100260 0.034082 -0.054423 -0.049035 0.037705 -0.031906 0.080399 -0.137414 0.253275 -0.128541 0.033210 -0.112039 -0.139535 -0.043233 -0.181825 -0.047139 0.103373 -0.054737 0.207729
25 -0.151026 -0.155871 0.063681 -0.011766 -0.000872 -0.090270 0.088193 -0.078931 0.011400 0.038673 -0.031566 0.139510 0.016119 -0.148512 0.004250 -0.189284 -0.061917 -0.154914 -0.041200 -0.049413 0.146063 0.082304 0.095591 0.068936 -0.010904 -0.036296 0.007445 0.072637 0.001137 0.037132 -0.106487 0.142446 -0.110161 0.030218 -0.083121 -0.089317 0.146659 0.084760 -0.009550 -0.186885 -0.274006 0.075031 0.134098 0.134459 -0.109908 0.087029 0.040337 -0.035716 -0.065109 0.051656 -0.098182 0.248468 -0.024896 0.119820 -0.158835 -0.115151 -0.083857 -0.047399 -0.110157 0.004785 0.172317 -0.147193 -0.131062 0.084747 -0.077260 -0.135279 -0.052149 0.100030 -0.068235 -0.172540 0.058106 -0.016269 0.042118 -0.020374 0.131189 -0.080371 0.149667 0.031596 -0.001418 0.033101 -0.008776 -0.148143 -0.036091 -0.239149 -0.118215 0.133522 -0.076244 -0.029656 -0.007486 -0.045375 0.041731 0.122975 0.127277 -0.060313 -0.093946 0.183815 -0.056652 -0.045361 0.065420 -0.048493 -0.237772 0.061837 -0.157401 -0.061063 0.019614 0.096929 0.167974 0.125275 -0.004132 -0.100211 0.036870 -0.059456 -0.048390 0.032104 -0.028793 0.077418 -0.134142 0.246244 -0.114800 0.031813 -0.105110 -0.141156 -0.042904 -0.171108 -0.038038 0.112633 -0.065905 0.205177
5 -0.138864 -0.228359 0.074804 -0.037935 -0.030958 -0.166616 0.050455 0.086905 0.158636 0.031419 -0.006079 0.226888 0.050003 -0.220492 0.115163 -0.242415 -0.127045 -0.217185 -0.012829 -0.172645 0.161036 0.041913 0.086056 0.064282 0.126702 0.020609 0.033788 0.069264 0.025008 0.007760 -0.118764 0.152525 -0.131493 -0.009185 0.023119 -0.137404 0.091604 0.035076 -0.036967 -0.189210 -0.246070 -0.029233 0.194354 0.187660 -0.202619 0.062293 0.068627 -0.044066 0.037049 0.118341 -0.224676 0.229933 -0.062212 0.150941 -0.100257 -0.110820 -0.065109 0.022060 -0.085942 -0.079493 0.257867 -0.201958 -0.039816 0.056419 -0.142173 0.008472 -0.037957 0.127738 -0.113155 -0.230027 -0.005968 -0.003638 0.005919 -0.038220 0.250383 -0.014036 0.187027 -0.021353 -0.023282 -0.107477 -0.022308 -0.041791 -0.056125 -0.100181 -0.151420 -0.069576 0.048231 -0.053493 0.099865 0.021296 0.103104 0.025439 0.136919 0.019076 -0.153269 0.077390 0.024101 -0.214464 0.117157 0.112074 -0.189022 0.014985 -0.129364 -0.005761 -0.075155 0.078648 0.078321 0.169511 -0.013106 -0.119897 -0.005238 0.057512 -0.033050 0.047161 -0.081096 0.075767 -0.089419 0.182598 -0.173923 -0.015059 -0.065574 -0.034976 0.032302 -0.222342 -0.175222 0.003870 0.014207 0.189938
26 -0.151095 -0.142080 0.065954 -0.005739 0.011839 -0.077590 0.105524 -0.115873 -0.027985 0.040635 -0.037686 0.127922 0.011646 -0.145409 -0.018815 -0.177562 -0.052253 -0.143200 -0.053261 -0.027212 0.146400 0.095835 0.100801 0.070440 -0.043905 -0.048465 -0.002607 0.071931 -0.002341 0.044774 -0.106345 0.143912 -0.110507 0.040528 -0.106860 -0.086329 0.170054 0.092045 -0.002826 -0.192902 -0.285591 0.095651 0.126909 0.131211 -0.099553 0.094407 0.030662 -0.040231 -0.093027 0.042420 -0.064670 0.260543 -0.021903 0.110572 -0.169835 -0.118699 -0.091820 -0.057149 -0.121235 0.017838 0.164454 -0.146768 -0.158165 0.100292 -0.061837 -0.168963 -0.055463 0.091795 -0.055843 -0.169927 0.076989 -0.016952 0.046913 -0.022079 0.120743 -0.096765 0.151495 0.041122 -0.001377 0.065570 -0.011959 -0.172726 -0.033811 -0.277050 -0.115649 0.185927 -0.110316 -0.020202 -0.024470 -0.057597 0.037674 0.152429 0.131935 -0.070087 -0.083385 0.213677 -0.078098 -0.012586 0.061445 -0.088409 -0.256969 0.073310 -0.167244 -0.077499 0.037562 0.109960 0.198298 0.123770 -0.003212 -0.095968 0.047633 -0.088306 -0.056822 0.036003 -0.012413 0.084597 -0.154536 0.272987 -0.104970 0.042713 -0.122140 -0.179047 -0.061175 -0.171648 -0.007348 0.140276 -0.081963 0.216780
11 -0.132524 -0.213874 0.077660 -0.035104 -0.030560 -0.156734 0.040400 0.089046 0.148161 0.029117 -0.009794 0.210154 0.047517 -0.207002 0.111039 -0.227926 -0.120019 -0.202952 -0.008799 -0.169462 0.150619 0.034078 0.085751 0.058649 0.119083 0.022039 0.032017 0.067886 0.021782 0.006925 -0.106769 0.143553 -0.118567 -0.014440 0.024381 -0.123001 0.084696 0.031687 -0.033821 -0.174177 -0.228718 -0.026502 0.187111 0.175318 -0.189481 0.060370 0.065698 -0.037445 0.035212 0.118246 -0.210994 0.211914 -0.064189 0.145040 -0.092737 -0.103978 -0.062727 0.026168 -0.087006 -0.072424 0.243671 -0.190057 -0.033664 0.050555 -0.135874 0.009145 -0.041866 0.121125 -0.107178 -0.218723 -0.004395 -0.004630 0.003502 -0.032591 0.241583 -0.008958 0.181644 -0.020204 -0.020462 -0.102715 -0.017964 -0.033694 -0.051320 -0.094321 -0.144056 -0.065010 0.047719 -0.054328 0.094587 0.021163 0.093425 0.021550 0.130096 0.020581 -0.142440 0.069638 0.028363 -0.200254 0.107787 0.106860 -0.169505 0.018019 -0.120683 -0.000932 -0.069744 0.074918 0.071837 0.157892 -0.006223 -0.114199 -0.004636 0.057780 -0.037123 0.045031 -0.074152 0.065159 -0.090012 0.170567 -0.167813 -0.018152 -0.059652 -0.036024 0.033248 -0.209821 -0.163784 -0.003335 0.013695 0.172091
18 -0.157562 -0.205895 0.078822 -0.038334 -0.011509 -0.152631 0.065202 0.019917 0.081628 0.044779 -0.021591 0.195556 0.046588 -0.205863 0.060757 -0.235964 -0.099995 -0.188532 -0.022564 -0.125533 0.165764 0.064296 0.093945 0.067622 0.065710 0.005671 0.034361 0.093146 0.037137 0.024099 -0.122609 0.153250 -0.133910 0.027738 -0.026879 -0.119097 0.120340 0.052499 -0.009345 -0.193098 -0.258739 0.015761 0.166983 0.170972 -0.156765 0.071500 0.048201 -0.047768 -0.008465 0.085885 -0.168532 0.217831 -0.044752 0.159496 -0.151471 -0.102361 -0.067533 -0.002296 -0.105601 -0.033007 0.222034 -0.177455 -0.097678 0.059203 -0.111592 -0.048125 -0.048275 0.111862 -0.089073 -0.193187 0.012517 -0.011255 0.034906 -0.032511 0.200677 -0.033027 0.198624 0.003260 0.001663 -0.045279 -0.026677 -0.099047 -0.049439 -0.175591 -0.135169 0.034895 -0.002955 -0.054700 0.051767 -0.008449 0.073607 0.068818 0.128538 -0.035423 -0.142808 0.133952 -0.027586 -0.138200 0.092833 0.038600 -0.225058 0.037370 -0.136520 -0.028497 -0.029621 0.093036 0.116358 0.147412 -0.015468 -0.114512 0.014332 -0.003611 -0.041161 0.049642 -0.063691 0.068801 -0.112182 0.219302 -0.150562 0.001574 -0.091457 -0.091452 -0.012282 -0.204798 -0.107064 0.051983 -0.021047 0.197464
22 -0.150320 -0.205605 0.078227 -0.036626 -0.016093 -0.152972 0.062527 0.029077 0.089338 0.037716 -0.018470 0.197874 0.046492 -0.208620 0.069772 -0.231013 -0.104657 -0.191191 -0.015837 -0.132462 0.161515 0.060134 0.090148 0.066531 0.068903 0.008249 0.032261 0.084938 0.035545 0.020660 -0.120706 0.146390 -0.136352 0.020081 -0.021226 -0.120062 0.113802 0.046639 -0.015862 -0.194942 -0.247638 0.003127 0.170424 0.175193 -0.158197 0.068319 0.050709 -0.044667 0.001779 0.087452 -0.173734 0.214793 -0.052859 0.152298 -0.136701 -0.102255 -0.062778 0.007816 -0.096763 -0.040852 0.222797 -0.171910 -0.085715 0.060108 -0.116240 -0.035503 -0.050879 0.114796 -0.090336 -0.194653 0.011358 -0.007937 0.028844 -0.030766 0.204956 -0.028075 0.187350 -0.001789 -0.000795 -0.053129 -0.024290 -0.089023 -0.049412 -0.158585 -0.131698 0.011587 0.004704 -0.056385 0.064374 -0.005333 0.078364 0.062080 0.123772 -0.026123 -0.138901 0.121156 -0.017180 -0.149835 0.094134 0.049979 -0.213399 0.030829 -0.128050 -0.021952 -0.036810 0.091178 0.108854 0.153682 -0.015592 -0.110183 0.018133 0.008274 -0.034875 0.052751 -0.066854 0.070984 -0.110356 0.213488 -0.157553 0.000798 -0.083693 -0.080425 -0.003234 -0.204610 -0.115606 0.046261 -0.008657 0.196566
21 -0.156443 -0.167185 0.068386 -0.019863 -0.001839 -0.109467 0.087817 -0.051061 0.028373 0.044972 -0.026422 0.165679 0.023039 -0.176320 0.020098 -0.201141 -0.076362 -0.164207 -0.040111 -0.077082 0.152479 0.080195 0.090693 0.067587 0.009049 -0.027151 0.016190 0.081556 0.017365 0.028880 -0.111720 0.143976 -0.121316 0.037307 -0.068600 -0.098854 0.145949 0.077328 -0.004458 -0.188902 -0.270667 0.064093 0.146925 0.146006 -0.128684 0.076712 0.048428 -0.045458 -0.049323 0.058246 -0.106054 0.240450 -0.031205 0.128141 -0.158425 -0.108952 -0.080980 -0.031526 -0.107643 -0.004285 0.183757 -0.154657 -0.129880 0.082925 -0.076186 -0.108438 -0.051373 0.093411 -0.067763 -0.176798 0.050972 -0.016303 0.040575 -0.021938 0.147406 -0.059914 0.162729 0.017356 -0.000010 0.019495 -0.015915 -0.127848 -0.041112 -0.217367 -0.118686 0.103931 -0.058132 -0.033461 0.015452 -0.035322 0.053660 0.111907 0.116631 -0.043322 -0.102950 0.166455 -0.051431 -0.066632 0.068353 -0.026549 -0.227826 0.048490 -0.144094 -0.052537 0.005813 0.097023 0.148439 0.122360 -0.015124 -0.099240 0.041129 -0.040860 -0.047182 0.039284 -0.032783 0.081080 -0.132371 0.240817 -0.121750 0.032692 -0.103625 -0.131150 -0.033241 -0.177808 -0.049015 0.093221 -0.045050 0.198227
23 -0.147247 -0.142478 0.056841 -0.004765 0.009479 -0.078979 0.097178 -0.089075 -0.009154 0.039122 -0.033111 0.139313 0.010446 -0.150075 -0.009966 -0.176741 -0.059552 -0.138076 -0.048794 -0.038080 0.136901 0.088014 0.087637 0.066205 -0.027466 -0.042261 0.002098 0.070416 0.002450 0.036946 -0.106435 0.137340 -0.115113 0.043387 -0.092044 -0.084032 0.161295 0.082575 -0.004997 -0.185479 -0.270266 0.089402 0.134540 0.133621 -0.099841 0.078345 0.038386 -0.040767 -0.080682 0.039720 -0.070352 0.241450 -0.020959 0.111184 -0.161444 -0.114398 -0.087654 -0.046085 -0.106665 0.006781 0.160548 -0.141721 -0.147376 0.089963 -0.058582 -0.146236 -0.051364 0.091206 -0.051254 -0.157562 0.067701 -0.014165 0.049774 -0.019575 0.111895 -0.077961 0.153174 0.033737 0.003827 0.056812 -0.006590 -0.154516 -0.032226 -0.247227 -0.108768 0.158564 -0.091001 -0.018892 -0.016724 -0.050147 0.038152 0.136998 0.113406 -0.061813 -0.088602 0.191043 -0.066760 -0.025287 0.052833 -0.065021 -0.236128 0.060848 -0.145947 -0.076912 0.023225 0.095575 0.169749 0.112881 -0.010596 -0.090613 0.044493 -0.075294 -0.053831 0.028507 -0.015435 0.079717 -0.145362 0.258936 -0.106429 0.045002 -0.113016 -0.156202 -0.052929 -0.163670 -0.014020 0.118239 -0.068102 0.207267
10 -0.152262 -0.173486 0.068889 -0.019433 0.001570 -0.110958 0.086495 -0.040453 0.035923 0.038273 -0.023896 0.168186 0.023952 -0.173312 0.022881 -0.202222 -0.077601 -0.162784 -0.038948 -0.082820 0.152815 0.077567 0.091303 0.070122 0.012329 -0.021195 0.019738 0.080305 0.019860 0.025655 -0.118256 0.140635 -0.122217 0.037975 -0.064313 -0.099160 0.145216 0.065834 -0.008572 -0.194300 -0.265738 0.052237 0.153410 0.153863 -0.123443 0.078463 0.049142 -0.046302 -0.042219 0.058167 -0.115643 0.233211 -0.032315 0.133316 -0.158206 -0.104578 -0.074727 -0.027501 -0.107890 -0.006974 0.188223 -0.154614 -0.129409 0.075926 -0.084497 -0.098114 -0.052981 0.096499 -0.073222 -0.176398 0.045240 -0.016168 0.042970 -0.024259 0.153070 -0.054956 0.167742 0.015211 -0.002892 0.008737 -0.018649 -0.128081 -0.040968 -0.205493 -0.119318 0.097098 -0.052292 -0.037613 0.017379 -0.031885 0.055610 0.104996 0.120838 -0.044595 -0.105940 0.164151 -0.047287 -0.080090 0.069612 -0.015380 -0.226808 0.047442 -0.139925 -0.050126 -0.002889 0.093743 0.148268 0.132280 -0.016052 -0.096874 0.038126 -0.042744 -0.042994 0.039084 -0.035990 0.075100 -0.125203 0.240912 -0.127431 0.021942 -0.101685 -0.125723 -0.032118 -0.177401 -0.053649 0.087615 -0.046482 0.202204
15 -0.154303 -0.156822 0.065910 -0.010208 0.008403 -0.084249 0.099458 -0.086897 -0.000431 0.039999 -0.028720 0.147856 0.012258 -0.153440 0.002989 -0.189315 -0.068415 -0.152637 -0.053261 -0.054895 0.146878 0.090583 0.094008 0.066525 -0.022217 -0.037686 0.003874 0.075005 0.007400 0.031178 -0.111788 0.143032 -0.111105 0.040326 -0.082543 -0.085725 0.155215 0.083110 -0.001525 -0.186214 -0.275174 0.083736 0.136723 0.135781 -0.106456 0.084254 0.038364 -0.044631 -0.073967 0.043595 -0.081894 0.245015 -0.027002 0.118338 -0.160632 -0.115926 -0.090557 -0.047165 -0.106068 0.007463 0.170599 -0.141709 -0.144262 0.084914 -0.063261 -0.134312 -0.051261 0.088671 -0.052557 -0.159706 0.065372 -0.016111 0.044734 -0.024248 0.116253 -0.074433 0.149915 0.029946 -0.005392 0.043934 -0.009617 -0.140766 -0.033872 -0.236591 -0.109882 0.139978 -0.081901 -0.024576 -0.009366 -0.042431 0.039841 0.129876 0.118492 -0.058206 -0.087537 0.185031 -0.059701 -0.027380 0.057340 -0.056799 -0.222832 0.057544 -0.148199 -0.067230 0.022523 0.092408 0.166259 0.114584 -0.011915 -0.093845 0.044408 -0.066075 -0.051724 0.027105 -0.017305 0.082040 -0.134682 0.249796 -0.109676 0.042698 -0.105750 -0.152897 -0.041310 -0.155548 -0.025279 0.111456 -0.061944 0.200977
27 -0.152676 -0.157275 0.061155 -0.008571 0.011021 -0.083912 0.104466 -0.092511 -0.012693 0.044119 -0.035097 0.145417 0.009050 -0.150229 -0.006475 -0.190673 -0.059678 -0.152754 -0.052473 -0.048407 0.148463 0.095229 0.097741 0.069750 -0.026878 -0.046120 0.002184 0.080007 0.003790 0.038127 -0.110654 0.142275 -0.118740 0.042036 -0.087680 -0.087445 0.163883 0.088375 -0.004820 -0.194709 -0.282826 0.092540 0.137218 0.136991 -0.107411 0.085383 0.045737 -0.045462 -0.080335 0.045547 -0.073878 0.255530 -0.026514 0.121459 -0.165781 -0.119334 -0.090453 -0.046822 -0.107842 0.009698 0.165341 -0.143883 -0.156477 0.092976 -0.064634 -0.151395 -0.058343 0.094990 -0.056457 -0.170502 0.065170 -0.011846 0.046045 -0.025298 0.120037 -0.084377 0.158245 0.031979 -0.003022 0.057353 -0.013680 -0.157020 -0.034867 -0.249627 -0.114419 0.161472 -0.087048 -0.020298 -0.018676 -0.048760 0.034329 0.135370 0.120614 -0.061991 -0.088303 0.197940 -0.067720 -0.026019 0.058098 -0.074514 -0.242901 0.064755 -0.150263 -0.079346 0.026444 0.102682 0.179648 0.112540 -0.015125 -0.089967 0.049907 -0.073627 -0.054515 0.030223 -0.011078 0.079640 -0.144345 0.259714 -0.108651 0.044291 -0.117509 -0.158158 -0.048535 -0.164722 -0.017857 0.123836 -0.068652 0.208130
17 -0.137809 -0.239620 0.083894 -0.037534 -0.046126 -0.179718 0.044165 0.119555 0.187786 0.036870 -0.005296 0.243054 0.060716 -0.232644 0.130642 -0.248053 -0.136862 -0.236599 -0.008156 -0.194524 0.163810 0.025483 0.095428 0.060146 0.155137 0.034114 0.036383 0.068007 0.027965 0.010337 -0.117693 0.158084 -0.129073 -0.024127 0.033936 -0.148472 0.084051 0.028015 -0.045200 -0.194982 -0.253912 -0.048243 0.207523 0.201849 -0.221858 0.061144 0.075610 -0.039190 0.055551 0.140828 -0.253520 0.233107 -0.075811 0.158839 -0.089941 -0.113502 -0.071261 0.037617 -0.084312 -0.095505 0.281850 -0.215172 -0.023918 0.048672 -0.154409 0.029350 -0.042322 0.139387 -0.127314 -0.242338 -0.015267 -0.005117 0.001122 -0.038687 0.279996 -0.000062 0.195672 -0.028460 -0.022687 -0.134036 -0.020500 -0.025460 -0.051986 -0.079443 -0.163994 -0.100999 0.067780 -0.065003 0.120405 0.030280 0.108927 0.013475 0.144343 0.036190 -0.164230 0.064850 0.047933 -0.242531 0.131336 0.136838 -0.182446 0.012463 -0.132647 0.007872 -0.086683 0.080426 0.068612 0.182448 -0.009006 -0.121445 -0.008652 0.077906 -0.031075 0.055666 -0.089504 0.073590 -0.091678 0.181673 -0.193506 -0.029295 -0.057302 -0.018660 0.046534 -0.233805 -0.202963 -0.015408 0.028015 0.191934
16 -0.150477 -0.160682 0.067002 -0.016838 0.001023 -0.104291 0.088701 -0.055414 0.020554 0.040892 -0.029124 0.159269 0.019935 -0.165149 0.018697 -0.197981 -0.076540 -0.159546 -0.043809 -0.074419 0.145302 0.082454 0.090776 0.064230 0.003377 -0.025875 0.016119 0.079501 0.014937 0.026042 -0.114257 0.142534 -0.123628 0.034551 -0.067529 -0.091616 0.150541 0.070243 -0.007159 -0.193032 -0.265979 0.066659 0.147407 0.145337 -0.116566 0.073959 0.045829 -0.042047 -0.057190 0.057507 -0.099557 0.233457 -0.030510 0.130147 -0.156231 -0.107051 -0.077903 -0.029681 -0.104122 -0.006818 0.180747 -0.153023 -0.133253 0.074374 -0.078010 -0.113527 -0.053057 0.100674 -0.068278 -0.177180 0.053541 -0.017424 0.044233 -0.025025 0.148184 -0.064670 0.171084 0.019354 -0.001335 0.023431 -0.009985 -0.138190 -0.041105 -0.224977 -0.115805 0.117503 -0.061704 -0.029946 0.012316 -0.035986 0.047019 0.116842 0.116521 -0.051307 -0.104757 0.177165 -0.051200 -0.066563 0.063952 -0.034044 -0.230311 0.053669 -0.141108 -0.060112 0.002684 0.093638 0.151468 0.127009 -0.011565 -0.097406 0.038150 -0.045029 -0.050953 0.040011 -0.030479 0.080689 -0.134907 0.249243 -0.122512 0.029882 -0.106824 -0.133360 -0.039821 -0.178390 -0.042590 0.100899 -0.049307 0.208250
13 -0.144886 -0.191180 0.077679 -0.035638 -0.012253 -0.139381 0.065905 0.011783 0.074193 0.040942 -0.021948 0.179023 0.041219 -0.195816 0.056716 -0.217652 -0.095211 -0.180005 -0.021777 -0.121873 0.156451 0.062130 0.081474 0.064837 0.053577 0.001328 0.032728 0.089108 0.031256 0.021381 -0.117736 0.144598 -0.127889 0.021173 -0.028152 -0.112716 0.120214 0.054485 -0.010150 -0.185370 -0.243103 0.014814 0.161131 0.164454 -0.146290 0.069311 0.050006 -0.044650 -0.014273 0.084093 -0.158104 0.214362 -0.042649 0.148544 -0.143860 -0.102422 -0.069406 -0.003599 -0.095610 -0.032834 0.209929 -0.165238 -0.094112 0.056335 -0.103216 -0.051953 -0.047775 0.104512 -0.082632 -0.189264 0.014047 -0.010382 0.029101 -0.029506 0.185750 -0.038153 0.180499 0.000825 -0.005080 -0.040969 -0.019893 -0.098205 -0.048591 -0.164102 -0.128055 0.034601 -0.005905 -0.048766 0.046619 -0.006873 0.072120 0.067672 0.115210 -0.033100 -0.126979 0.124696 -0.024633 -0.133135 0.082006 0.033985 -0.208132 0.034158 -0.129814 -0.028480 -0.029733 0.085040 0.117686 0.140483 -0.014106 -0.109854 0.020320 -0.004002 -0.039308 0.050357 -0.061080 0.066741 -0.111714 0.215262 -0.143792 0.003416 -0.086591 -0.084504 -0.008149 -0.192479 -0.102602 0.056371 -0.017125 0.194492
19 -0.141979 -0.162468 0.068802 -0.014374 0.000268 -0.098132 0.085996 -0.055350 0.024570 0.039784 -0.029668 0.158643 0.018260 -0.161866 0.016177 -0.190314 -0.076341 -0.160576 -0.039210 -0.066970 0.143364 0.074617 0.090505 0.065276 0.005445 -0.023047 0.011300 0.074659 0.011361 0.028562 -0.108782 0.141315 -0.114407 0.029644 -0.065600 -0.092019 0.139685 0.074776 -0.005875 -0.183421 -0.260374 0.061590 0.143246 0.140249 -0.117542 0.076218 0.047329 -0.046157 -0.054462 0.058746 -0.104695 0.233779 -0.036097 0.120344 -0.144336 -0.106220 -0.083810 -0.028624 -0.098741 -0.009184 0.178831 -0.153111 -0.123647 0.082171 -0.077824 -0.115139 -0.047757 0.095113 -0.067267 -0.174211 0.051285 -0.012581 0.037598 -0.021678 0.140150 -0.065274 0.161778 0.024158 -0.005503 0.017842 -0.013658 -0.126798 -0.036791 -0.216094 -0.115630 0.108735 -0.056526 -0.026523 0.006216 -0.035068 0.047916 0.114168 0.121458 -0.042933 -0.099582 0.169593 -0.048214 -0.060388 0.066294 -0.033688 -0.218702 0.053945 -0.144927 -0.059561 0.003101 0.093815 0.147067 0.122726 -0.011530 -0.094662 0.034353 -0.044838 -0.046596 0.032678 -0.023461 0.078300 -0.124331 0.237190 -0.119772 0.032979 -0.101947 -0.130906 -0.035197 -0.170132 -0.049691 0.093087 -0.052554 0.192719
12 -0.152904 -0.192603 0.074092 -0.030071 -0.012719 -0.132621 0.069338 -0.001664 0.067303 0.040241 -0.017237 0.186259 0.034245 -0.187543 0.051091 -0.212050 -0.095754 -0.177409 -0.024755 -0.115182 0.152905 0.067994 0.090269 0.061898 0.045757 -0.007055 0.026437 0.081827 0.024112 0.021388 -0.113859 0.147632 -0.128902 0.022699 -0.033606 -0.106541 0.123124 0.058934 -0.014386 -0.187924 -0.256516 0.024470 0.165622 0.160782 -0.148446 0.072213 0.053031 -0.046196 -0.022373 0.077752 -0.151738 0.227695 -0.045186 0.136413 -0.142321 -0.109438 -0.072023 -0.007530 -0.099714 -0.027898 0.211122 -0.165772 -0.101151 0.068360 -0.105947 -0.063432 -0.045761 0.108427 -0.082541 -0.187338 0.030643 -0.008174 0.032425 -0.026317 0.182983 -0.042451 0.181634 0.009758 -0.004810 -0.024052 -0.018475 -0.100718 -0.049229 -0.177525 -0.129277 0.049271 -0.020108 -0.044729 0.040953 -0.017672 0.067390 0.082683 0.122344 -0.029059 -0.121388 0.133277 -0.022359 -0.124008 0.085386 0.023699 -0.219223 0.034381 -0.135889 -0.035159 -0.023385 0.087117 0.123869 0.143429 -0.009570 -0.108910 0.018477 -0.009521 -0.041271 0.046343 -0.050054 0.076746 -0.116825 0.224997 -0.147664 0.008293 -0.092274 -0.097921 -0.012366 -0.189793 -0.096007 0.062338 -0.028720 0.196398
