1800 128
1457 0.053572 0.034856 -0.020831 0.300803 -0.161890 0.194437 -0.232946 0.141783 0.059832 0.039258 -0.260492 0.114343 0.006272 -0.038583 0.003916 0.015729 -0.030349 0.163030 0.021969 0.145129 0.073322 -0.028044 0.080789 -0.259346 -0.395569 0.050416 0.114019 0.347950 -0.099396 0.285790 -0.131693 -0.010920 -0.028691 0.182767 -0.007603 0.008546 0.042061 -0.137766 0.060908 0.130419 0.020322 -0.064051 -0.329333 0.021939 -0.006929 -0.195962 -0.062506 -0.345307 0.133110 0.088939 -0.004079 0.005926 -0.128476 0.168656 -0.077150 -0.194991 -0.003532 -0.255827 -0.159057 0.191753 -0.045465 -0.084330 -0.237458 0.147625 0.298785 -0.190645 0.133610 -0.010826 0.185002 -0.216761 -0.210189 -0.002675 0.054443 -0.285987 -0.361129 -0.087165 -0.230863 -0.180948 0.023688 -0.223297 0.197832 0.107838 -0.138562 0.053475 0.244855 0.046840 -0.131253 -0.056251 -0.173812 -0.085999 -0.149109 -0.260961 0.001349 -0.017732 -0.032556 -0.043649 0.155814 0.165180 -0.010002 0.146473 0.120477 -0.082498 -0.079588 0.045320 0.132033 0.075142 -0.067722 -0.071645 -0.307679 0.163909 -0.066424 0.243284 -0.039533 0.016320 -0.058964 -0.063741 -0.043084 -0.052552 -0.091279 -0.228878 0.193980 0.146514 -0.210812 -0.014324 -0.062622 -0.270763 0.124638 -0.205250
1256 0.062898 -0.054279 -0.154872 0.037299 -0.087318 0.012469 -0.015211 0.237554 0.025587 -0.137040 -0.096924 -0.002407 0.128554 -0.086588 -0.098907 0.002241 -0.172984 0.256083 -0.046582 0.192973 0.140955 -0.064604 0.008760 -0.163013 -0.353412 0.082229 0.097835 0.053039 0.018686 -0.032405 -0.101662 -0.210113 -0.053487 0.384596 -0.016154 0.163421 0.125591 -0.057624 -0.074246 -0.015547 -0.128071 -0.075137 -0.222385 -0.014712 0.052682 -0.158798 0.085491 -0.117019 -0.020277 0.130607 0.088074 -0.129427 0.010581 0.176712 -0.091304 -0.202410 -0.052845 -0.144972 -0.042042 0.123476 -0.099253 -0.032387 -0.156617 -0.038802 0.185354 -0.244829 -0.056321 -0.023027 0.253555 -0.150384 -0.108127 -0.125481 -0.078330 -0.408756 -0.355610 -0.063533 -0.222658 -0.189437 0.078489 -0.234176 0.078471 0.128737 -0.224235 0.053517 0.162566 0.199645 -0.211140 0.012654 -0.103134 -0.261335 -0.288746 -0.242425 -0.030399 0.061871 0.044778 -0.121068 0.096951 0.083326 0.143495 0.197505 0.213195 -0.137854 -0.158555 -0.305495 0.364855 -0.087879 -0.145994 0.003586 -0.280040 0.078399 -0.190229 0.286371 0.034290 -0.079203 0.056614 -0.073534 -0.139176 0.117824 -0.058897 -0.095012 0.138749 0.116750 -0.175175 0.229934 -0.007822 -0.015719 0.371827 -0.028081
1456 0.251588 -0.049320 -0.174098 0.047022 -0.168138 0.039961 -0.083363 -0.073746 0.238308 -0.019359 -0.045866 -0.066200 0.063004 -0.104266 -0.065674 0.282944 -0.138139 0.019291 -0.050059 0.247867 0.151049 0.192479 -0.003294 -0.132755 -0.205015 -0.015034 -0.041566 0.195531 -0.220894 0.135689 -0.038062 -0.092210 -0.242194 0.228142 -0.035129 0.238409 0.235152 -0.237400 -0.089814 0.352099 0.083500 -0.165466 -0.096743 -0.189171 -0.088231 0.001458 -0.153746 -0.147211 -0.000859 -0.061871 0.056880 -0.035454 -0.127536 -0.010362 -0.251411 0.013540 -0.023145 -0.107063 -0.060205 0.076418 -0.189878 -0.036397 -0.322613 0.135988 0.358953 -0.075200 0.065846 -0.130319 0.062210 -0.250169 -0.145507 -0.123093 0.077144 -0.482225 -0.352537 -0.000272 -0.125996 -0.162775 0.216699 -0.200250 0.084106 0.167754 -0.094320 -0.166394 -0.071495 0.087025 -0.106799 -0.173694 -0.224862 0.025690 -0.079253 -0.088440 -0.088269 -0.083649 0.037578 -0.092372 0.028197 0.111430 -0.061906 0.136359 -0.013611 -0.090476 -0.025307 -0.095289 0.052509 0.028018 0.037014 -0.120821 -0.288782 -0.227771 -0.152321 0.238392 -0.083230 -0.076448 -0.071095 -0.118933 0.079814 0.042841 -0.186100 -0.103843 0.135937 0.123226 -0.130067 0.099479 -0.258162 -0.156298 0.184684 0.019588
1455 0.113543 0.055167 -0.072667 0.193612 -0.415738 0.049302 0.014751 -0.030945 0.196942 0.040825 0.112788 -0.101629 0.098116 -0.136037 0.043284 0.282561 -0.181197 0.042631 -0.038983 0.198445 -0.119007 0.037133 -0.091414 -0.044760 -0.325568 -0.010307 -0.057192 0.085662 0.130691 0.283304 -0.038756 -0.053188 -0.165329 0.156705 -0.005710 0.149037 0.130728 -0.126229 -0.106342 0.253236 -0.019004 -0.411153 -0.126480 0.138302 0.120615 -0.183638 -0.072877 -0.165089 0.083378 0.181293 0.098226 -0.009979 -0.189870 -0.010713 -0.053258 -0.100880 0.088829 -0.211004 -0.204536 0.020495 -0.085273 -0.223048 -0.188590 0.156510 0.209462 0.013798 0.134774 -0.222729 0.151709 -0.184925 -0.032886 -0.170031 0.077167 -0.460096 -0.375343 0.240826 -0.246377 -0.129791 0.208534 -0.128467 0.309677 0.220207 -0.228653 -0.167057 0.030660 -0.049838 -0.284364 -0.143063 -0.225760 0.175110 -0.103539 0.085957 -0.012733 0.072822 0.084361 0.165850 0.075839 -0.052087 0.074145 0.285899 -0.130731 0.156444 0.064693 -0.048032 0.081449 -0.289908 -0.073123 -0.125194 -0.151144 -0.101209 -0.065448 0.206085 -0.155824 -0.151118 0.090158 -0.144764 -0.021055 -0.059653 -0.180940 -0.267310 0.184057 0.034374 -0.138278 0.003991 -0.004551 -0.052771 0.027609 -0.029222
2261 0.201818 -0.053917 -0.058027 0.205153 -0.234847 -0.005296 -0.130386 0.029057 0.134860 -0.032318 -0.086030 0.049962 -0.018343 -0.003462 -0.019367 0.160315 -0.042192 0.202344 0.086746 0.221238 0.129380 -0.031623 0.125356 -0.240565 -0.363794 0.037600 0.152074 0.262179 -0.134503 0.247197 -0.070275 -0.093289 -0.082058 0.199518 -0.064971 -0.064143 0.138295 -0.144475 -0.014028 0.134118 0.042559 0.015040 -0.306182 -0.045249 -0.037878 -0.214816 -0.083761 -0.507115 0.101134 -0.072943 0.065584 0.058693 -0.014587 0.132388 0.008706 -0.203201 -0.079412 -0.164261 -0.025917 0.076288 0.006976 0.011029 -0.220394 0.130933 0.258976 -0.265626 0.021588 -0.027175 0.056952 -0.130481 -0.089615 -0.034183 -0.009833 -0.329429 -0.251375 -0.146591 -0.244637 -0.091230 0.115344 -0.346530 0.053380 0.020118 -0.384394 -0.175659 0.081528 0.124873 -0.240146 -0.017375 -0.114595 -0.100453 0.050609 -0.108537 0.113391 0.035601 0.009427 -0.032476 0.059304 0.057028 -0.079991 0.232228 0.132290 -0.001213 -0.230929 -0.180262 0.165217 0.112230 -0.213890 0.027749 -0.230306 -0.033549 -0.175038 0.061705 -0.046259 0.021932 -0.119598 -0.020945 -0.161760 -0.004953 -0.175829 -0.016109 0.188852 0.232671 -0.130689 0.030140 0.018110 -0.173150 0.081771 -0.245910
1254 0.302001 -0.163527 -0.275051 -0.247363 -0.136762 -0.002981 0.076771 0.072237 0.104512 -0.023228 -0.100609 0.027609 0.175271 0.100354 -0.068040 0.527471 0.009273 0.068948 -0.140040 0.234852 -0.095988 -0.184055 0.108317 -0.023794 -0.229349 0.098983 -0.219590 0.148144 0.111653 0.054442 -0.090929 -0.304588 0.082376 0.466321 -0.154117 0.299613 0.125574 -0.061966 0.003351 0.225108 0.007096 -0.247752 -0.332042 0.129685 0.061961 -0.124566 0.106373 0.106614 0.048216 0.210858 -0.032327 -0.090716 -0.278746 0.118218 -0.199889 -0.015378 0.046888 -0.228028 -0.018350 0.101611 0.067029 -0.038380 -0.050676 0.035784 0.266361 -0.041609 0.041998 -0.263790 -0.012927 0.000969 -0.108796 -0.102234 -0.254105 -0.451474 -0.452554 0.048105 -0.277839 -0.080032 0.034500 -0.062764 0.101834 0.299357 -0.245029 -0.034483 0.045054 0.177033 -0.289115 0.003922 -0.248695 -0.212371 -0.171736 -0.050198 -0.043940 -0.060688 0.030859 0.252425 -0.105908 -0.116015 0.226149 0.213137 0.010029 -0.165453 -0.007218 -0.367691 0.177202 -0.151103 -0.091243 -0.230145 -0.307393 -0.049258 0.036645 0.401799 -0.038971 -0.083377 -0.054285 0.017959 -0.103311 0.120057 -0.011182 -0.216199 -0.044023 0.133977 -0.063822 0.049145 -0.098376 0.121589 0.096706 -0.059505
1255 0.025333 -0.099705 -0.214900 -0.052777 -0.155816 -0.112956 0.066965 0.089369 0.130488 -0.065037 -0.102332 0.193822 0.034737 -0.032621 0.078731 0.199762 -0.089631 0.030245 -0.015049 0.217270 0.253746 -0.021723 0.195589 -0.151006 -0.243020 -0.141611 -0.001869 0.061661 -0.066829 0.162754 -0.206020 -0.215458 -0.024613 0.226507 0.080942 0.301621 -0.000258 -0.079485 0.066949 0.275243 0.008121 -0.253464 -0.296476 -0.006989 0.063049 -0.029695 -0.015811 -0.113311 0.035628 0.076906 -0.064662 0.003526 -0.059124 0.010331 -0.032316 0.096642 0.127277 -0.241510 0.057526 -0.052798 -0.029915 -0.023345 -0.138775 0.182014 0.270022 -0.153070 0.138952 -0.128236 0.125359 -0.220243 -0.153675 -0.165130 -0.046530 -0.522671 -0.481332 -0.073784 -0.170025 -0.197216 0.092128 -0.099192 0.012527 0.078567 -0.285569 -0.050908 0.146646 -0.109576 0.013617 -0.202455 -0.190150 -0.007299 -0.217038 -0.217891 -0.116821 0.185830 0.118837 0.230703 -0.003160 -0.168993 0.197714 0.385234 0.182414 -0.269141 -0.131550 -0.325444 0.246856 -0.081248 0.041552 -0.006815 -0.329183 -0.071819 -0.053875 0.380785 -0.085100 -0.004944 0.052706 -0.087287 -0.193981 0.144327 -0.071897 -0.134186 0.004359 0.182735 -0.139081 -0.097482 0.047768 0.113178 0.284245 -0.109571
2662 -0.059583 0.008226 -0.134354 0.323922 -0.247931 -0.127424 -0.138543 0.202848 0.162204 0.005438 -0.317376 0.115261 0.173727 -0.020812 -0.155385 -0.018745 0.143621 0.144004 0.010515 -0.076255 0.224065 0.002568 0.235492 -0.113551 -0.420597 -0.117499 0.091149 0.251759 -0.229931 0.168327 -0.214991 -0.158760 -0.258448 0.282958 -0.077438 0.163604 0.214056 0.034325 -0.098310 0.004148 -0.029291 -0.038701 -0.268679 0.018687 -0.204950 -0.336868 0.092401 -0.081966 0.302054 0.090570 -0.072139 0.190892 -0.038103 0.269532 -0.075307 -0.134098 0.103431 -0.158394 0.052477 0.205489 -0.002000 0.032778 -0.243500 0.046395 0.261571 -0.121604 0.115612 0.057601 0.222910 -0.223281 -0.165158 -0.110556 0.007303 -0.330385 -0.305870 -0.041348 -0.329485 -0.106754 -0.012289 -0.467603 0.304996 0.099093 0.020485 -0.162141 0.128289 0.055163 -0.094657 0.093258 -0.076265 -0.197603 -0.152036 -0.168026 0.067188 0.005518 -0.013220 -0.076244 0.011570 0.125826 0.097251 0.189202 0.167895 -0.109247 -0.119640 -0.119680 0.078560 0.058029 -0.121189 -0.018955 -0.139924 0.133556 -0.191219 0.084663 -0.172139 0.079929 -0.178374 0.015346 -0.191306 0.179135 -0.238202 0.033951 0.158226 0.133404 -0.202568 0.187985 0.017692 -0.069367 0.059429 -0.079876
3454 0.162554 -0.288526 -0.085607 0.020140 -0.450333 -0.105216 0.128369 -0.003453 0.100450 -0.050954 -0.170129 -0.049326 0.008385 -0.044510 0.041366 0.431754 -0.199607 0.124498 0.008551 0.218909 0.076110 0.046281 0.301726 -0.188001 -0.315220 0.098808 0.089622 0.028603 0.010413 0.226689 -0.279064 -0.186840 -0.059404 0.261869 0.017764 0.295818 0.063708 -0.171091 -0.276989 0.061962 0.132308 -0.186628 -0.301687 0.407090 -0.145482 0.035363 -0.057827 -0.130072 0.162715 0.255838 -0.159831 0.040814 -0.259863 0.333524 -0.168181 0.025698 0.124917 -0.011924 -0.183937 0.127151 -0.166728 -0.116276 -0.202921 0.147739 0.212656 -0.110387 -0.051239 -0.081910 0.058709 -0.112117 -0.207795 -0.493275 -0.035475 -0.130787 -0.249338 0.150311 -0.047342 -0.073787 0.181184 0.041175 0.292278 0.228546 -0.184832 -0.113006 0.127659 0.255535 -0.272210 -0.079920 0.090157 -0.005114 -0.026534 0.081457 -0.090844 0.039773 0.055944 0.138214 -0.057050 0.022696 0.147105 0.207069 -0.170773 -0.145819 0.097573 -0.145597 0.051383 -0.163908 0.068233 -0.183842 -0.060127 -0.012218 -0.112924 0.249615 -0.248117 -0.101988 0.122445 0.108152 -0.069174 -0.077938 0.099336 -0.091260 -0.011528 -0.110522 -0.109153 -0.070183 0.090287 -0.168987 0.088558 -0.073803
2260 0.225376 -0.028467 -0.189609 0.093464 -0.243866 -0.076149 -0.066056 0.059490 0.344037 0.028198 -0.168806 0.206269 0.107832 -0.033014 -0.081442 0.220478 -0.063506 0.088647 0.041588 0.324812 0.135227 -0.003498 0.218544 -0.227153 -0.194103 0.061826 -0.137705 0.128524 -0.217136 0.037559 -0.028154 -0.132239 -0.132582 0.342814 -0.130785 0.037843 0.099719 0.067517 -0.065415 0.153431 -0.047298 -0.023330 -0.225350 -0.018340 -0.067570 -0.148033 0.077908 -0.353601 0.062589 0.220715 -0.008393 -0.077145 -0.126152 0.101776 -0.018570 -0.067657 0.043289 0.049726 -0.134258 0.074624 0.047663 0.051313 -0.307552 0.222179 0.262988 -0.024943 0.056946 0.032377 0.132626 -0.226534 -0.005548 -0.216064 -0.175421 -0.053872 -0.081917 -0.092093 -0.255838 -0.253935 0.137476 -0.187921 0.083612 -0.129645 -0.125834 -0.124796 0.104348 0.100284 -0.245513 0.004959 -0.097418 -0.136636 -0.166946 -0.033757 -0.122509 -0.103767 0.181900 -0.010730 0.169671 0.197981 0.049254 0.246786 0.065192 0.124843 -0.169854 -0.161449 0.172584 0.026809 0.041987 -0.100832 -0.292554 -0.038268 -0.152774 0.354452 0.007349 0.038130 -0.132071 -0.130761 -0.155386 0.043423 -0.000732 -0.289918 -0.003474 0.066224 -0.099328 -0.108469 -0.135542 -0.190666 0.184228 -0.139644
2259 0.200722 -0.176999 0.067161 -0.318474 -0.554007 -0.027701 0.064567 -0.045627 0.217658 -0.130927 -0.035213 -0.042297 0.142352 0.016066 0.050252 0.427937 -0.156977 0.070117 -0.041265 0.399052 -0.012540 0.113753 0.184592 -0.281731 -0.127951 -0.044731 -0.090916 0.098683 0.182887 0.194367 -0.177431 -0.143419 -0.157874 0.371415 -0.169707 0.018680 0.129711 -0.023667 0.239342 0.203871 0.091755 -0.246769 -0.332226 0.069807 -0.052395 -0.187269 -0.050145 -0.367019 0.095680 0.109269 0.093448 -0.013986 -0.142571 0.198695 0.002429 -0.076807 -0.086026 -0.023887 -0.158047 0.023609 0.028884 -0.019364 -0.226873 0.016935 0.254514 -0.254829 -0.067401 -0.158271 0.169204 -0.288775 0.037542 -0.120591 -0.101291 -0.158550 -0.167684 -0.097034 -0.262650 -0.096368 0.140900 -0.077758 0.344799 0.154599 -0.174018 -0.403648 0.240986 0.133198 -0.272109 -0.109544 -0.134782 -0.138873 0.025601 0.210408 0.148697 -0.071537 0.018620 0.174392 0.087269 -0.026090 0.037149 0.160687 -0.180336 0.029333 -0.114383 -0.167523 0.064194 -0.162491 -0.128079 0.067514 -0.156227 0.006704 0.017918 0.348498 -0.185407 0.062968 0.049490 0.095159 -0.032187 -0.040356 -0.131634 -0.102617 0.067750 -0.008729 0.075782 -0.107037 0.134608 -0.140860 -0.013724 -0.150042
1458 0.217854 -0.052565 0.003081 0.255658 -0.146118 0.004932 -0.166975 0.041518 0.114685 0.075006 -0.124096 0.137492 0.047188 -0.037349 -0.074610 0.048547 -0.146015 0.115508 0.052128 0.038630 0.082996 0.102352 0.117321 -0.209677 -0.333794 0.040422 0.218248 0.190232 -0.114819 0.027981 -0.220395 -0.199545 -0.183817 0.158050 0.135356 0.041506 0.206248 -0.179746 -0.006215 0.287533 0.053916 -0.220951 -0.132777 0.003763 -0.046839 -0.186780 0.066316 -0.276965 0.041975 -0.102009 0.087281 0.056684 -0.174720 0.083932 0.001774 -0.148423 -0.152227 -0.174578 -0.178699 0.098230 -0.095075 -0.081264 -0.434234 0.080930 0.236396 -0.196286 -0.063336 -0.104397 0.321438 -0.140669 -0.045192 -0.065682 -0.034539 -0.319401 -0.131111 0.092871 -0.055840 -0.145364 0.078832 -0.294407 0.231772 0.145728 -0.130902 0.097853 0.054552 0.025176 -0.290567 0.081684 -0.012499 -0.160100 -0.193128 -0.194618 -0.183249 0.053173 -0.008951 -0.059652 0.230807 0.101834 -0.098999 0.112906 0.203390 -0.240997 -0.277571 -0.151990 0.025503 0.112450 -0.176397 0.122996 -0.139215 0.117962 -0.048050 0.015099 0.132177 -0.175202 0.066141 -0.283484 -0.044772 0.116286 -0.221206 -0.018800 0.287571 0.312078 -0.220823 0.019134 -0.047032 -0.203863 0.125949 -0.134532
2661 -0.182584 -0.022047 0.130466 0.137130 -0.409114 -0.028054 -0.221467 -0.143743 0.235850 -0.069166 -0.219727 0.000725 0.105334 0.024991 -0.107710 -0.080517 -0.033149 0.004843 -0.059203 0.041084 0.193246 0.157293 0.142721 -0.216292 -0.248230 -0.236235 -0.000233 0.187461 -0.172538 -0.044607 -0.054508 -0.128022 -0.177374 0.403742 -0.046374 0.179178 0.346667 0.176046 -0.101666 0.191240 0.130351 -0.114065 -0.225428 0.125936 -0.080409 -0.216612 0.105516 -0.189638 0.284945 0.140091 0.085376 -0.009508 -0.067627 0.096283 0.014525 -0.117285 0.182861 -0.042406 -0.021207 0.113656 -0.221599 0.007087 -0.125720 0.214208 0.336709 -0.123341 -0.031756 0.143606 0.043675 -0.074461 -0.076719 -0.303851 0.078597 -0.303806 -0.476566 0.081271 -0.236876 -0.062088 -0.185528 -0.265456 -0.056967 0.042169 0.024566 -0.004946 0.026406 0.186039 -0.200112 0.063480 -0.065958 -0.176251 -0.061033 0.062941 -0.040957 0.124185 0.086416 -0.081296 -0.103227 0.130077 0.127447 0.424130 0.095008 -0.099549 0.020232 -0.085301 0.018489 0.028719 -0.014046 -0.046014 -0.032725 -0.127812 -0.167410 0.159552 -0.110405 -0.065899 -0.102040 -0.316941 -0.020812 -0.121598 0.017365 -0.231127 -0.019641 0.218905 -0.064447 0.014532 -0.134959 -0.108480 -0.102476 -0.134466
426 0.172761 -0.088855 -0.075441 0.135145 -0.340654 0.063406 -0.083570 0.087269 0.142992 0.074321 -0.241724 0.021401 -0.007535 0.042581 0.033382 -0.140961 0.016742 0.251513 0.064907 0.094064 0.104831 -0.108918 0.135682 -0.038703 -0.338174 0.160000 0.305279 0.407172 -0.093453 -0.004430 -0.154029 -0.101621 -0.230896 0.220805 -0.072530 -0.002097 0.148221 -0.154130 -0.014082 0.064679 0.160475 -0.063331 -0.365507 -0.188378 0.016115 -0.080091 -0.195665 -0.598611 0.122025 0.085074 -0.172577 -0.113599 0.163764 0.198170 -0.060913 -0.245561 0.014238 -0.105877 -0.229113 0.194687 -0.078637 -0.045432 -0.397005 0.196537 0.241166 0.004789 0.078800 0.187715 0.155308 -0.113147 -0.093675 -0.187846 -0.188960 -0.262208 -0.341395 -0.064190 -0.225031 -0.141855 0.063211 -0.221104 0.185756 0.005206 -0.095207 -0.192421 0.174400 0.205983 -0.187902 -0.192261 -0.117483 -0.166498 -0.131943 -0.087196 -0.028020 0.135572 -0.047563 -0.035946 0.319803 -0.070639 -0.111559 0.243674 0.219484 -0.063131 -0.244929 -0.289769 0.011733 0.034283 -0.106141 -0.079875 -0.211827 -0.040341 0.095819 0.094297 -0.067520 -0.147952 -0.116799 -0.191888 -0.086225 -0.014693 -0.143450 -0.058100 0.048357 0.042771 -0.216489 0.114675 -0.010749 -0.130115 0.108066 -0.168951
1253 0.209674 -0.257806 -0.356912 -0.251704 -0.134449 0.035697 0.060333 -0.037343 0.185384 -0.088174 0.013120 0.123292 -0.019885 -0.012866 0.160360 0.491745 -0.121074 0.158270 -0.068818 0.353660 0.145101 -0.054890 0.136077 -0.021533 -0.073018 -0.008751 -0.083709 0.029102 0.033526 0.105411 -0.197958 -0.282806 -0.250597 0.444435 0.037142 0.406224 0.066466 -0.031909 0.013487 0.124251 0.067142 -0.326183 -0.168772 0.063058 0.147885 -0.167375 -0.118564 0.090485 0.008856 0.213290 -0.003856 0.041358 -0.303839 0.081039 -0.059053 -0.056955 0.269503 -0.093717 0.105656 -0.142605 0.020073 -0.103186 0.009476 0.238122 0.276970 -0.118380 0.063340 -0.370105 0.113114 -0.176380 -0.031511 -0.387475 -0.184771 -0.423223 -0.404266 0.202257 -0.276630 -0.095624 -0.037239 0.052670 0.065700 0.251612 -0.208083 -0.263900 0.178297 0.040106 -0.072537 -0.140292 -0.162486 0.113739 -0.081894 -0.102304 -0.044878 0.164998 0.013852 0.185034 -0.185117 -0.052396 0.149531 0.380508 0.035720 -0.018927 0.043402 -0.173692 0.181565 -0.114662 0.065735 -0.104990 -0.125355 -0.127661 -0.047273 0.442154 -0.188081 -0.076469 -0.090219 0.018150 -0.161296 0.001632 0.007871 -0.013667 0.012652 0.233500 -0.138092 -0.013995 -0.033966 0.054060 0.140791 -0.276608
1454 0.070438 -0.057930 -0.087078 -0.004030 -0.424380 0.139453 -0.182114 -0.107846 0.260841 -0.033178 0.111390 -0.201521 0.004276 -0.166986 0.100966 0.327605 -0.007855 -0.051107 -0.085850 0.328336 0.103462 0.218265 0.039182 -0.054344 -0.188300 0.004072 -0.291272 0.020755 0.105961 0.247048 -0.068640 -0.137288 -0.351854 0.491709 -0.089145 0.452010 0.247038 -0.090034 -0.160424 0.296714 -0.066434 -0.189564 0.000259 0.098339 -0.022741 -0.128490 -0.052106 -0.162518 0.055563 0.172609 0.066260 -0.012287 -0.329116 0.146606 -0.237733 0.109892 0.040350 0.024455 -0.169674 0.036516 -0.073148 -0.313948 -0.193415 0.281587 0.165491 0.023329 0.066340 -0.326606 0.109663 -0.057616 0.043833 -0.269039 0.028031 -0.510987 -0.392222 0.101779 -0.233462 -0.074162 0.120149 -0.020038 0.330051 0.333531 -0.115168 -0.130539 0.058710 0.047173 -0.149338 -0.330285 -0.288755 0.046206 -0.043165 0.107573 -0.113817 -0.058773 0.034795 -0.103959 -0.032915 0.120040 0.051653 0.237749 -0.045156 0.119141 0.145671 -0.126970 -0.109298 -0.086030 0.288071 -0.164579 -0.159394 -0.214773 -0.034915 0.249198 -0.103348 -0.108355 0.002306 0.032921 0.078528 -0.156717 -0.143574 -0.158089 0.100923 0.184376 -0.035524 -0.052203 -0.093598 -0.085227 0.045047 -0.039342
3455 0.107037 -0.114623 -0.213733 0.059902 -0.419022 -0.066579 -0.021130 -0.018595 0.167718 -0.013665 -0.222129 0.226246 -0.117595 -0.217742 -0.002285 0.382380 -0.096696 0.120493 -0.042678 0.268764 0.079489 0.149819 0.107024 -0.161388 -0.336096 -0.050535 -0.031132 0.405316 -0.177651 0.120003 -0.055529 -0.297602 -0.250307 0.060396 -0.156654 0.287250 0.260987 -0.099594 -0.098878 0.191390 0.218299 -0.151940 -0.221661 -0.108729 -0.089311 -0.035657 -0.091667 -0.326506 -0.004614 0.145312 0.139938 -0.005165 0.001980 0.190281 -0.145048 0.041996 0.023192 -0.132236 -0.119522 0.041415 -0.115899 0.016914 -0.237446 0.162836 0.148328 -0.104968 0.080964 0.075738 0.188458 -0.102629 -0.110854 -0.305793 0.059399 -0.206250 -0.059362 0.137686 -0.230309 -0.139809 -0.038317 -0.085498 0.075999 0.021734 -0.112631 -0.103414 0.045588 0.102547 -0.137238 0.121687 -0.097988 -0.186947 -0.109655 -0.074552 -0.195728 0.054036 0.036671 -0.118714 0.052425 0.257572 0.119171 0.224729 -0.098124 -0.131865 -0.095294 -0.205170 -0.079388 0.001347 0.047485 -0.199202 -0.313330 -0.045521 -0.154833 0.346485 -0.046678 -0.170333 0.092316 0.014211 -0.103020 0.042327 -0.014293 -0.260044 0.050690 0.105218 -0.167926 -0.058224 0.012557 -0.131192 0.206409 -0.173415
1638 0.239240 -0.080272 -0.075325 0.109528 -0.254637 -0.007475 -0.144673 0.023873 0.086953 -0.101346 -0.189157 0.002947 0.129651 -0.006100 -0.067368 0.150016 -0.113675 0.299879 0.145413 0.270454 0.042412 0.026350 0.226085 -0.129612 -0.279246 0.072767 0.198584 0.206712 -0.112305 0.060342 -0.241969 -0.082814 -0.084344 0.056518 -0.004562 0.135766 0.038639 -0.123161 -0.028099 0.165899 0.002033 -0.060212 -0.210389 0.107436 0.083710 -0.069102 0.218803 -0.281132 0.239270 -0.001721 -0.264218 -0.069447 -0.007683 0.011657 -0.073105 -0.176337 -0.053038 -0.309536 -0.103410 -0.019151 -0.114621 -0.127727 -0.331111 0.109198 0.178274 -0.288108 0.122035 -0.059862 0.163907 -0.084777 -0.237728 -0.176983 0.052091 -0.379866 -0.251671 -0.112759 -0.241083 -0.181015 0.178031 -0.301385 0.084810 0.188566 -0.123920 -0.091381 0.284294 0.274207 -0.093902 -0.133138 -0.043472 -0.301041 -0.172497 -0.189463 -0.023474 -0.032231 -0.022597 -0.113600 0.290404 0.037140 -0.013847 0.227814 0.095434 -0.153045 -0.191112 -0.202880 0.162369 0.159369 -0.283347 0.156191 -0.252355 0.055361 -0.030488 0.266046 0.144015 -0.095945 0.013238 -0.053508 -0.116527 0.015794 -0.055659 -0.089343 0.145682 0.069897 -0.228914 0.103771 -0.077123 -0.155306 0.266730 -0.165378
2660 -0.167542 -0.140190 0.071191 0.098646 -0.239730 -0.061247 -0.102181 -0.114594 0.102143 -0.083778 -0.226778 0.025134 0.240867 0.167397 -0.081021 0.319079 0.166097 -0.179782 -0.123669 0.185031 0.082550 0.015313 0.154511 -0.125630 -0.290210 0.007831 -0.015243 0.102652 -0.050860 0.294901 -0.273256 -0.511729 0.017512 0.180546 -0.158103 0.275675 0.151427 0.164989 -0.003328 -0.065105 -0.141029 -0.315225 -0.213068 0.218176 -0.089104 -0.102942 0.038653 -0.066303 0.189448 0.288202 0.152018 0.163828 0.121445 0.299887 -0.164031 -0.164312 0.070410 0.097017 -0.084359 -0.200953 0.092902 -0.146831 -0.100421 0.153772 0.271213 -0.095991 0.062608 -0.169981 0.133986 -0.215182 0.061959 -0.335176 -0.021238 -0.315775 -0.395518 0.138583 -0.183404 0.070941 0.249654 -0.111699 0.199718 0.152539 -0.020161 -0.306511 0.179430 0.024418 -0.472958 -0.024238 -0.212787 0.009998 -0.034017 0.217212 0.071038 -0.021906 -0.150847 0.002837 -0.043512 0.166335 0.380906 0.467095 -0.036063 0.216849 0.085413 0.105133 -0.091949 0.141930 -0.041661 -0.237758 0.048484 -0.076713 -0.348078 0.290475 0.197714 -0.126996 0.003125 -0.222969 -0.195015 -0.010599 -0.110256 -0.093024 0.104011 0.005937 0.023063 -0.210395 -0.130866 -0.025517 0.102880 0.014836
2165 0.036985 -0.226653 -0.137149 0.278266 -0.271794 -0.057912 -0.044632 0.069052 0.069704 0.045966 -0.169193 0.071560 0.094723 0.131134 0.108615 0.069563 0.012856 0.155725 0.226352 0.141942 -0.039360 0.129214 0.230623 -0.200760 -0.235178 -0.001811 0.101721 0.175928 0.005484 0.011303 -0.054681 -0.069917 -0.310447 0.178555 0.147297 0.025114 0.132098 0.020551 -0.097043 0.156092 0.033564 -0.161146 -0.387950 0.022422 -0.013857 -0.294885 -0.081764 -0.308327 0.186514 0.065113 -0.019540 -0.064164 -0.005067 0.028530 -0.077453 -0.246666 -0.043077 -0.066027 -0.117447 0.010116 -0.038519 -0.226605 -0.414578 0.152250 0.017396 -0.151021 0.061958 0.080863 0.181528 -0.377986 -0.189401 0.101154 0.096313 -0.358542 -0.226569 -0.067255 -0.153774 -0.266863 -0.012345 -0.090295 0.074652 0.149392 -0.228584 0.079443 0.302066 0.231099 -0.113186 -0.100921 0.057819 -0.216244 -0.231820 -0.162555 -0.070385 -0.015283 -0.006008 -0.003894 0.201725 0.093479 0.177987 0.082696 0.072022 -0.129514 -0.207057 -0.281546 0.309660 0.148971 -0.136203 -0.008202 -0.211880 -0.065826 0.015575 0.353791 -0.114568 -0.057034 0.080707 -0.101462 -0.025153 0.081430 -0.133740 -0.069335 0.302534 0.103920 -0.207801 0.250994 -0.104130 -0.049026 0.271687 -0.219098
1134 0.207621 0.017378 -0.005270 0.125087 -0.049089 -0.080165 -0.127956 0.141264 0.127203 0.048927 -0.315842 0.068136 0.133414 0.158375 0.078644 0.051694 -0.242109 0.108072 0.089537 0.292700 0.168689 -0.050368 -0.097840 -0.107554 -0.464801 -0.077498 0.146188 0.206064 -0.169564 0.167570 -0.149471 -0.088119 -0.239116 0.192466 0.099693 0.172679 0.083477 -0.134629 -0.003531 0.218886 -0.093866 0.126368 -0.371255 0.053179 -0.068021 -0.290704 -0.176731 -0.546428 0.035676 0.062960 0.052056 -0.096836 -0.085903 0.164717 -0.192802 -0.218574 -0.007434 -0.073890 -0.133565 0.280977 0.027569 -0.090282 -0.309815 0.136581 0.109734 -0.192300 0.101422 -0.016440 0.118295 -0.109890 -0.246833 -0.058405 0.129002 -0.284399 -0.327862 -0.237645 -0.271728 -0.164163 0.046040 -0.250640 0.171287 0.090997 -0.087270 -0.247153 0.152616 0.136630 -0.090886 -0.091330 -0.196617 -0.247702 -0.290080 -0.244361 -0.211852 0.020209 -0.011206 -0.011355 0.140957 0.055225 -0.001299 0.044645 0.176255 -0.084834 -0.057051 -0.207046 0.271726 0.116966 -0.355517 -0.123158 -0.187189 0.152353 -0.151393 0.201167 -0.008017 -0.010575 -0.100572 -0.079296 -0.238041 0.042907 -0.036056 -0.133250 0.002354 0.271017 0.011123 0.186516 -0.140745 -0.204628 0.222943 -0.217415
2845 0.093719 -0.089869 -0.020610 -0.088801 -0.432926 -0.102632 -0.024611 0.036760 0.311607 0.203860 0.003374 0.030754 0.045689 0.209830 -0.164389 0.423137 -0.346051 0.188770 -0.040607 0.439997 -0.035794 0.126873 0.141961 -0.117613 -0.337367 -0.040594 -0.174612 0.325467 -0.028762 0.127581 -0.350359 0.022073 -0.096388 0.305431 0.037766 0.133936 0.197373 -0.103339 -0.016437 0.029949 -0.044400 -0.449795 -0.136731 0.096702 0.097113 0.039518 0.066194 0.024361 0.054082 0.216406 -0.092513 -0.115849 0.078999 0.358177 -0.162456 -0.039955 0.135384 -0.202717 -0.349504 0.108225 -0.143774 0.215875 -0.216905 0.182326 0.146661 -0.144527 0.273300 -0.449696 -0.167415 -0.246387 -0.006031 -0.193713 -0.056939 -0.104746 -0.147831 0.011005 -0.463896 -0.092768 0.089070 -0.103013 0.145621 0.274136 0.028411 -0.273545 0.043245 0.197486 -0.274266 0.028010 -0.334471 0.067459 -0.044319 0.016551 -0.094931 0.126004 0.159651 0.216811 -0.047280 -0.147055 0.254418 0.217250 0.186112 0.052756 -0.008645 -0.408460 -0.117724 -0.283092 -0.226240 -0.072941 -0.181045 -0.073513 0.094377 0.328188 0.049520 -0.081134 0.120875 0.091580 0.143798 0.056505 -0.116629 -0.059535 0.131732 0.003950 -0.219510 -0.056358 0.107105 -0.235797 0.202182 -0.126699
3453 0.179675 -0.184514 -0.051303 -0.265008 -0.417987 0.079871 0.061481 0.012180 0.184107 -0.052433 -0.134179 0.165082 0.140843 -0.247176 0.208693 0.529425 -0.058214 0.191852 -0.108982 0.306346 0.097259 0.051208 0.165504 0.128037 -0.452021 -0.079951 -0.286564 0.153283 -0.055886 0.203434 -0.114026 -0.228813 -0.213392 0.180754 -0.047515 0.625381 0.237817 0.066341 -0.111568 0.011032 0.214999 -0.099659 -0.111810 0.180286 -0.024618 -0.033612 -0.019427 -0.066802 0.176874 0.155740 -0.055163 -0.003990 -0.067239 0.080034 -0.119366 0.033622 0.089451 0.019724 -0.137720 0.007749 -0.128530 -0.145672 -0.153309 0.302156 -0.008291 0.015844 -0.036271 -0.062376 0.091260 0.057296 0.119641 -0.388405 -0.088340 -0.200505 -0.107448 0.348863 -0.205495 0.051443 -0.042730 0.210992 0.304983 0.257259 -0.130081 -0.212906 0.020557 0.025766 -0.257735 0.170651 -0.142924 -0.216527 0.007881 0.235286 -0.134001 0.068986 -0.029229 0.102693 0.116202 0.062869 0.100568 0.223119 -0.155355 -0.049110 0.039231 0.018636 -0.045367 0.038779 0.066239 -0.307159 -0.252752 0.107772 -0.063727 0.562256 -0.289104 -0.131450 0.167995 0.087251 -0.145305 -0.026642 -0.040446 -0.193962 0.005673 0.042323 -0.067264 -0.206468 -0.058638 -0.118297 0.171235 -0.277454
3420 0.134437 -0.055757 -0.053135 0.049380 -0.266456 0.033944 0.027566 -0.075439 0.207121 0.158631 -0.299341 0.165000 0.009103 -0.047153 0.093129 0.067691 -0.003809 0.093599 -0.000968 -0.022269 0.308038 0.080123 0.079249 -0.285292 -0.373911 -0.115497 0.029106 0.073927 0.043659 -0.024167 -0.106540 -0.194367 0.027041 0.239550 0.078863 -0.080170 -0.070456 -0.088469 0.029960 0.016645 0.092387 -0.017903 -0.153620 0.067456 -0.086865 -0.344198 -0.003283 -0.564485 0.259966 -0.101974 -0.118653 -0.004891 -0.142628 0.193349 -0.058873 -0.077294 0.073988 -0.463080 -0.107566 0.126130 -0.237158 -0.056390 -0.467139 0.141523 0.036486 -0.034009 -0.018670 -0.192368 0.266038 -0.119155 0.003462 -0.142832 -0.122744 -0.061864 -0.380538 -0.108295 -0.313824 -0.386560 -0.003831 -0.116614 0.079152 0.044258 -0.143478 -0.234838 -0.013176 0.136447 -0.089220 -0.016873 -0.032556 -0.241459 -0.300804 -0.228578 -0.116628 -0.012334 0.117624 -0.193522 0.204024 0.018998 0.278539 0.161813 0.381450 -0.197723 -0.255365 -0.128188 0.342145 0.047841 -0.212410 0.101436 -0.055243 0.114794 -0.137678 0.400393 0.104529 -0.272510 0.112269 0.009242 -0.399132 0.132937 -0.061311 0.069784 0.134484 0.154456 -0.094942 0.148794 -0.060043 -0.110239 0.149891 -0.108220
2466 0.355230 -0.026580 -0.313345 -0.032184 -0.349182 -0.171944 -0.223043 0.089474 0.226216 0.086160 -0.005784 0.103022 0.165261 0.010312 0.056769 0.349350 -0.143204 0.165192 -0.071313 0.007634 0.202259 -0.007264 -0.073002 0.106421 -0.391053 0.111051 -0.388270 0.201665 0.054111 0.007736 -0.343342 -0.121364 0.036492 0.424462 -0.047417 0.510609 0.159919 -0.083838 0.295554 -0.003065 0.062317 -0.504064 -0.278270 -0.063779 -0.047381 -0.220178 -0.002285 -0.031796 -0.103249 0.331291 0.008944 -0.247645 -0.093098 0.177632 -0.242578 -0.172175 0.002448 -0.086292 -0.078362 -0.073306 0.025732 -0.013054 0.009012 0.239596 0.229728 -0.260851 0.068499 -0.193161 -0.047079 -0.157867 -0.006804 -0.318722 -0.305362 -0.258362 -0.401380 0.078756 -0.311198 -0.214029 0.147555 -0.133010 0.012989 0.466924 -0.173970 -0.004288 0.046968 0.160790 -0.198319 -0.228185 -0.185352 -0.168524 0.140736 -0.015497 -0.047786 -0.100041 -0.153389 0.264022 -0.134594 -0.058994 0.294579 0.363682 0.114682 -0.250150 0.073476 -0.108213 0.311611 -0.426859 -0.092343 -0.017200 -0.136916 0.075474 -0.310300 0.215430 -0.081413 -0.061862 -0.059419 -0.030005 0.064816 0.161460 0.023916 -0.133885 -0.148648 0.217505 -0.097195 -0.120538 0.025203 0.062268 0.345561 -0.073093
2258 0.204023 -0.033340 -0.057109 -0.053797 -0.347730 -0.046784 -0.078347 0.107207 0.471975 -0.053665 0.058801 0.008677 0.099883 -0.091990 0.234891 0.403124 -0.265734 0.184080 0.085326 0.492093 0.187075 0.025343 0.047968 -0.090432 -0.190645 -0.105629 -0.223793 -0.000212 0.071495 0.229253 -0.239432 -0.135642 -0.220017 0.520610 -0.063481 0.332753 0.101225 0.137529 -0.132256 0.206975 -0.091922 -0.229484 -0.194242 0.160387 -0.104758 -0.212669 0.029762 -0.186184 0.018021 0.311785 0.051181 -0.017508 -0.240718 0.130957 0.121766 0.006043 0.061744 0.073732 -0.111997 -0.156088 -0.004130 -0.138785 -0.190055 0.347020 0.006737 0.051404 0.157029 -0.141230 0.098303 -0.127126 0.177296 -0.420942 -0.058884 -0.057336 -0.199125 -0.018086 -0.128175 -0.222515 0.088855 -0.001577 0.128882 0.216215 -0.001998 -0.313504 -0.100661 -0.053434 -0.248314 -0.055740 -0.195320 -0.072644 -0.087770 0.184692 -0.167360 -0.101550 -0.014610 0.090567 0.029385 0.150799 -0.045856 0.183196 -0.063875 0.292271 -0.140299 -0.129060 0.227190 -0.041024 0.210507 -0.169997 -0.060262 -0.106272 0.013204 0.561071 -0.181470 -0.023017 -0.023622 0.060914 -0.094266 -0.044996 -0.020529 -0.145763 -0.012525 0.140028 -0.118940 -0.251672 -0.220619 -0.253538 0.072553 -0.232486
2846 0.026091 -0.028221 -0.236975 -0.090986 -0.198674 -0.048069 0.059671 0.105247 0.085091 -0.113786 -0.084535 0.079516 -0.139048 0.256445 -0.053600 0.381796 0.039945 0.224314 0.090895 0.477088 -0.053301 0.175708 0.169923 -0.239584 -0.265419 -0.104666 -0.169536 0.328690 -0.024451 0.081088 -0.078000 -0.151990 -0.196112 0.212961 0.046843 0.340362 0.251438 -0.105874 0.076069 -0.049814 -0.034016 -0.294399 -0.100292 -0.001816 0.004166 -0.020327 0.204588 -0.064647 0.041142 0.070810 -0.085931 -0.146744 0.031262 -0.062018 -0.171962 0.035324 0.118807 0.000847 -0.274323 0.077137 -0.351264 -0.005920 -0.479664 0.116398 -0.016885 -0.132665 0.047699 -0.165113 0.070615 -0.131192 0.097896 0.020658 -0.116136 -0.327438 -0.328176 -0.014616 -0.193841 -0.231732 0.104709 -0.242858 -0.036610 0.319186 0.100920 -0.223721 0.137139 0.112658 -0.115506 0.042890 -0.180021 0.121506 -0.046261 -0.164003 0.009861 -0.003090 0.115985 0.128821 0.148290 0.048281 0.289570 0.297721 0.260671 -0.101550 -0.003194 -0.283467 0.277236 -0.062839 0.007175 -0.025868 -0.106396 0.007010 -0.088304 0.346744 -0.005491 -0.294160 -0.027797 -0.051536 0.024619 0.024168 -0.073890 -0.104816 0.112692 0.282682 -0.147049 -0.109245 0.025271 -0.273994 0.285557 -0.244498
1168 0.273861 0.030100 -0.063436 0.054071 -0.371929 0.010426 -0.112285 -0.011035 0.158361 0.055065 -0.243707 0.135535 0.034976 0.009934 -0.132708 0.065827 -0.110293 -0.102537 0.015904 -0.010340 0.077031 0.028044 0.091450 -0.240571 -0.532302 0.053245 0.227939 0.077999 -0.268966 0.283064 -0.095364 -0.097884 -0.191849 0.394976 0.150904 0.086669 -0.007550 -0.081540 -0.004646 0.186403 0.035623 -0.060735 -0.232428 0.006148 -0.031794 -0.288438 0.017689 -0.234158 0.146616 0.092477 -0.067343 -0.033843 0.021512 0.154137 -0.120946 -0.310585 -0.019035 -0.266889 -0.197024 0.050603 -0.074145 -0.196802 -0.073789 0.091726 0.141947 -0.228072 0.096910 0.054466 0.381934 -0.167242 -0.066036 -0.078039 -0.042343 -0.244071 -0.354651 -0.274580 -0.338433 -0.086931 0.172818 -0.261585 -0.241887 0.115440 -0.226817 -0.032293 0.147898 0.268471 -0.165319 0.016435 -0.002813 -0.275498 -0.127435 -0.315174 -0.037295 -0.104487 0.033821 0.029825 0.183904 0.036621 0.070529 0.235935 0.187920 0.032777 -0.091339 -0.157647 0.101607 0.060338 -0.044507 0.215402 -0.334556 0.051873 -0.234200 0.061237 0.091604 -0.196541 0.030838 0.068269 -0.383861 0.044371 -0.037729 -0.112938 0.048980 0.177118 -0.166627 0.167016 -0.204402 -0.074722 0.326636 -0.154379
1402 0.180203 0.078035 0.041175 0.176230 -0.400512 -0.107162 -0.027113 0.200264 -0.053561 -0.047668 -0.120899 0.009644 0.147512 -0.041105 -0.057195 0.134863 -0.087827 0.182450 -0.026141 -0.076061 0.326093 -0.069156 0.227617 -0.117038 -0.127241 0.008437 0.089672 0.007062 -0.052680 0.068903 -0.104765 -0.107141 -0.297914 0.533319 -0.048137 0.137314 0.140745 -0.205443 0.011633 0.012619 0.055438 0.137328 -0.238521 0.057634 0.058584 -0.280903 0.185147 -0.145512 0.288311 0.031102 -0.117939 0.130803 0.094826 0.280976 -0.307172 -0.104284 0.114611 -0.400679 -0.035979 0.180141 -0.164336 0.159148 -0.176923 0.009687 0.073551 -0.211238 0.083826 -0.056382 0.123416 -0.108979 -0.276651 0.046315 0.177539 -0.369005 -0.109919 -0.258500 -0.305586 0.039532 -0.081649 -0.083894 0.136447 0.122680 -0.217846 -0.012508 0.290275 0.179740 -0.421894 -0.007521 0.020679 -0.065190 -0.482515 -0.257261 -0.111053 0.014748 0.075679 0.035074 0.166293 0.152624 0.236726 0.393720 0.416460 -0.251933 -0.101043 -0.082418 0.493488 -0.074723 -0.021861 0.046250 -0.254949 -0.012291 -0.143870 0.235216 -0.044828 -0.046166 -0.149000 -0.202241 0.002821 0.254892 -0.150346 -0.178790 0.148683 -0.087016 -0.150412 0.084256 0.047249 -0.094303 0.069168 -0.212260
1166 0.289039 -0.289982 -0.190020 0.090488 -0.456101 -0.232551 -0.036350 -0.116189 0.376240 -0.002823 -0.031692 0.093712 0.237941 -0.132916 0.196359 0.390704 -0.380475 -0.264444 -0.010560 0.120852 0.000857 -0.101718 0.393803 -0.033106 -0.427260 0.126818 -0.121086 0.078834 0.022714 0.348287 -0.210777 -0.209068 -0.206463 0.380151 0.057136 0.385650 0.080168 0.045749 0.061918 0.322957 -0.014302 -0.391502 -0.141918 0.206602 0.025130 -0.263434 -0.140081 0.039817 0.068747 0.189074 0.047249 -0.244951 -0.011390 0.251532 -0.327885 -0.233196 0.074986 -0.121981 -0.325909 -0.203383 -0.202794 -0.168172 -0.246487 0.175650 0.222278 0.053149 0.119476 -0.062589 0.266632 -0.266780 -0.089224 -0.051917 -0.309123 -0.244310 -0.597900 -0.089228 -0.445692 0.143565 0.068974 0.158219 -0.065846 0.153301 -0.074687 -0.260414 0.117301 0.150991 -0.278467 -0.041892 -0.107000 0.000792 0.182514 -0.081040 -0.049807 -0.105747 0.011286 0.269860 -0.060255 -0.216555 0.063400 0.192985 -0.093757 0.224761 0.044592 -0.086577 0.089368 0.145943 0.081159 0.036334 -0.255147 0.134183 -0.227358 -0.113189 0.056344 -0.271772 0.004195 -0.044028 -0.108726 0.076335 -0.102694 -0.039072 0.013091 0.056380 0.114577 0.223119 -0.179356 0.044207 0.115992 -0.304881
1636 0.354236 -0.102097 -0.078401 -0.100375 -0.400246 -0.147399 -0.157340 -0.044794 0.272498 -0.159520 -0.206530 -0.127505 0.272567 0.076792 0.086819 0.457058 -0.346854 0.057716 0.062110 0.341281 0.029121 -0.249808 0.161141 -0.102687 -0.196760 0.229273 -0.239135 0.187166 0.089984 0.101088 -0.094594 -0.067568 -0.057806 -0.094307 -0.023083 0.513064 0.084150 0.013745 -0.031126 0.211930 -0.204978 -0.202276 -0.144506 0.151908 0.012171 -0.084698 0.280559 -0.221920 0.372174 0.146683 -0.000747 -0.052337 -0.240921 0.109884 -0.028242 -0.003972 0.124247 -0.108502 -0.352554 0.144631 -0.101929 -0.211060 -0.416926 0.323137 0.109425 -0.122373 0.119757 -0.407864 -0.085380 -0.003893 -0.158787 -0.312434 0.152395 -0.474569 -0.265858 -0.067257 -0.333646 -0.155125 0.195479 -0.138999 0.276727 0.154081 -0.045397 -0.131230 0.048162 0.110573 0.054557 -0.318433 0.061888 -0.205805 0.131252 0.083748 -0.095512 -0.035399 -0.001887 -0.056670 0.076769 -0.000851 0.104141 0.362188 -0.112729 0.100984 0.048482 -0.124245 0.137867 -0.028406 -0.253569 0.163873 -0.299475 -0.259060 -0.168417 0.366444 0.028430 -0.217958 0.079901 0.162685 0.230103 0.048425 -0.095282 -0.269252 -0.045430 -0.009031 -0.249146 0.091097 -0.010494 -0.127549 0.215728 -0.034857
1314 0.006635 0.047445 -0.081845 0.196515 -0.241408 -0.113003 -0.123507 0.178772 -0.029747 0.084050 -0.041691 -0.026719 0.124086 -0.081548 0.055873 -0.134468 -0.039954 0.226421 0.058947 -0.175096 0.126336 0.136800 0.284350 -0.180626 -0.287161 -0.116097 0.021311 0.050847 0.034457 0.301658 0.019755 -0.257397 -0.258526 0.287293 -0.172631 0.084068 0.263110 -0.159121 -0.099880 0.010827 -0.044684 0.112724 -0.439031 0.143217 -0.108867 -0.319882 0.079078 -0.422217 0.232105 0.261032 0.047158 -0.027686 -0.015465 0.353229 0.014513 -0.075377 -0.113906 -0.136716 0.010082 0.016195 -0.045267 0.030756 -0.359419 0.186813 0.080109 -0.104780 0.179098 -0.031333 0.030462 -0.172055 -0.186999 0.009810 0.068805 -0.589211 -0.269673 -0.066910 -0.310553 -0.090281 0.315813 -0.224135 0.129061 0.038362 -0.165858 -0.024550 0.271500 0.217006 -0.123481 0.199898 -0.008747 -0.405225 -0.232332 0.074330 -0.121039 0.152644 0.136288 -0.095370 0.019695 0.312861 -0.036900 0.301926 0.180625 -0.034056 0.053549 -0.196750 0.018118 0.088289 -0.207656 -0.068120 -0.321110 0.082014 -0.176152 0.183678 -0.049895 0.030239 -0.230607 -0.053291 -0.063343 0.334195 0.040413 -0.078228 0.027441 0.106711 -0.307550 0.122871 0.044496 0.111518 0.051425 -0.187815
3346 -0.087900 -0.150603 0.255554 0.322296 -0.194900 0.015442 -0.159126 -0.209631 -0.052326 -0.168393 -0.041472 -0.051245 0.555757 0.113918 0.203624 0.427384 0.020633 -0.076847 -0.097642 0.077204 0.400488 0.069641 0.245164 -0.034083 -0.046997 0.171761 -0.195615 0.224818 0.142629 0.232978 -0.241880 -0.257895 -0.421962 0.286034 -0.072871 0.037292 0.417963 -0.070364 -0.114535 0.043187 0.234998 -0.209622 -0.398608 0.219723 0.164111 -0.203146 0.126464 -0.021669 0.143454 0.287495 0.160621 0.092692 0.021568 0.331806 -0.107848 0.146417 0.119036 0.055993 -0.001923 -0.192096 -0.232404 0.237447 -0.210979 0.057735 0.381261 0.286413 0.325484 -0.349107 0.075501 -0.050524 -0.190717 -0.146830 0.111484 -0.188253 -0.502491 0.180520 0.107609 0.055068 0.201850 -0.308844 0.279874 0.051165 -0.215677 -0.341686 -0.006318 0.126814 -0.163532 0.041631 -0.084124 -0.130137 0.057527 -0.005539 0.010175 0.026468 0.027999 -0.114416 -0.047273 -0.093925 0.155219 0.396271 0.259126 -0.273898 -0.031009 0.090469 0.248923 -0.189805 0.051750 -0.311660 -0.066061 0.120606 -0.249932 0.410587 -0.034825 -0.044523 0.167983 -0.132323 -0.152920 0.032612 0.329853 -0.223654 0.463783 0.203743 0.016959 -0.224643 -0.381763 -0.024684 -0.049716 0.062989
1637 0.163083 -0.178761 -0.244740 0.014837 -0.132648 -0.218011 -0.249322 -0.266205 0.074024 -0.107731 -0.289819 0.212020 -0.053640 0.046850 -0.027154 0.344865 -0.280887 0.048386 0.139300 0.335549 -0.010841 0.020232 -0.026139 -0.237460 -0.298058 0.058192 -0.183183 0.064651 0.052769 0.077616 -0.193937 -0.187850 -0.167059 0.249510 -0.268083 0.203838 0.185167 -0.255053 0.021152 0.073642 -0.067367 0.013525 -0.140633 -0.100404 0.033271 -0.191171 0.065961 -0.164767 0.079912 -0.034141 -0.106341 -0.031128 -0.180198 0.003265 0.020968 -0.009931 -0.002890 0.009940 -0.337308 0.102198 -0.185479 -0.042958 -0.288554 0.239262 0.201616 -0.181477 0.170967 -0.308423 0.043045 -0.020778 0.146766 0.079411 0.103965 -0.318657 -0.446070 0.000910 -0.288817 -0.182802 0.161084 -0.122288 0.114843 -0.015508 -0.295929 -0.234506 0.190803 0.195428 0.081965 -0.147278 0.007034 -0.133063 -0.130661 -0.035285 -0.246417 -0.019468 -0.047733 0.001196 0.082821 0.268967 0.215677 0.308271 -0.075155 -0.116198 -0.106654 0.010141 0.281061 0.144033 0.010673 -0.069095 -0.495033 -0.131809 -0.040057 0.428438 -0.136298 -0.091129 0.070944 -0.101891 0.055224 0.040417 -0.001303 -0.115288 0.127773 0.113977 -0.178302 -0.137621 -0.019957 -0.265497 0.245030 -0.168564
1064 0.001744 0.006985 0.167346 0.312855 -0.197655 -0.027175 0.136704 -0.008557 0.098883 -0.114677 -0.172449 -0.067638 0.093141 -0.095307 0.046409 0.043784 0.108347 0.073776 0.233147 0.152017 0.105540 -0.088301 0.211620 -0.181986 -0.442599 -0.022419 0.149783 0.200872 -0.039597 0.238352 -0.042901 -0.114812 -0.132309 0.260994 0.026441 -0.034454 0.109680 -0.096716 0.014602 0.079149 0.073938 -0.005994 -0.216396 0.164623 0.180777 -0.156365 -0.153728 -0.456485 0.036902 0.146999 -0.128556 -0.136015 -0.073334 0.250760 -0.028642 -0.087871 0.037312 -0.007949 -0.028711 0.255977 -0.153797 -0.029740 -0.132705 -0.002106 -0.038645 -0.121689 0.018314 -0.017196 -0.204130 -0.152827 -0.095378 -0.091061 -0.155958 -0.559530 0.057372 -0.239263 -0.268794 -0.404705 -0.023401 -0.511009 0.177944 0.115563 -0.331588 -0.052187 0.281430 -0.076353 -0.066791 0.239541 -0.171581 -0.041385 -0.061690 0.109495 0.145281 0.267192 0.029742 -0.113644 -0.016112 0.216795 -0.125953 0.210861 0.228982 -0.166976 -0.068291 -0.206181 0.068000 0.163958 -0.058896 -0.217096 -0.311585 -0.030483 -0.323462 0.045581 0.200503 -0.177107 -0.280426 -0.198545 0.002377 0.326628 -0.164750 -0.098452 0.125064 0.206703 -0.174294 0.241921 0.226809 0.015837 -0.030092 -0.201147
1879 -0.134194 -0.181910 0.079476 0.306812 -0.394309 0.275012 -0.162668 -0.305642 0.340574 -0.088719 -0.234686 -0.209720 0.513538 0.100306 0.038587 0.504531 -0.235440 -0.273813 -0.230830 0.248866 0.203673 0.008598 0.263844 -0.127524 -0.038106 0.025179 0.050718 0.254023 0.124631 0.471402 -0.327211 -0.161053 -0.326475 0.258571 0.000300 0.304632 0.287441 0.002802 0.014250 -0.031923 0.192465 0.000081 -0.502998 0.207217 0.236908 -0.268709 0.041798 0.152316 0.096233 0.268191 0.391572 0.140902 0.192171 0.459301 -0.232860 0.022865 -0.032025 0.153127 0.056639 -0.052608 -0.180846 0.143630 -0.192965 0.003224 0.324214 0.249240 0.035373 -0.232244 0.117907 -0.000008 -0.171014 -0.277514 -0.054893 -0.326325 -0.488285 0.140693 -0.029271 -0.071165 0.027404 -0.305436 0.282137 0.182514 -0.149292 -0.193754 0.110987 0.199163 0.009854 0.111661 0.067384 -0.169204 -0.069766 0.019485 -0.048692 -0.023907 -0.022790 -0.103498 0.085190 -0.075613 0.251525 0.327414 0.108821 -0.050159 0.119335 0.052066 0.363415 -0.161397 0.068556 -0.239839 0.000844 0.022268 -0.393600 0.265809 0.041542 -0.118224 0.086878 -0.068758 -0.048187 0.146106 0.173678 0.071035 0.208900 0.219901 -0.162134 -0.419287 -0.207866 -0.032487 -0.224339 0.105925
2659 -0.292605 -0.203074 0.118054 0.002198 -0.392081 -0.085967 -0.173275 -0.164485 0.292877 -0.110547 -0.203931 -0.322666 0.055373 0.119326 -0.033787 0.140190 0.002997 -0.239618 -0.122783 0.206084 0.169479 0.130049 0.105196 0.074667 -0.321341 0.075901 -0.068558 0.000342 -0.094636 0.115812 -0.270029 -0.262804 -0.194282 0.268340 -0.015622 0.512295 0.091784 0.199601 -0.121374 0.255297 -0.038303 -0.423557 -0.190562 0.099871 -0.032126 -0.164853 0.063313 0.019832 0.191542 0.354957 -0.016411 -0.018685 -0.103394 0.100104 -0.083250 -0.005793 0.064885 0.121112 0.052458 -0.242165 -0.129127 -0.147788 0.019708 0.165118 0.226884 -0.141065 -0.136463 -0.173742 0.110853 -0.109637 0.129136 -0.354552 0.097860 -0.314178 -0.482373 0.245829 -0.090969 0.040290 -0.163497 -0.179047 0.231856 -0.039459 -0.205135 -0.399599 0.000929 0.131571 -0.424516 -0.120154 -0.033896 -0.270400 0.162786 0.313248 0.085749 -0.041403 0.014784 -0.102541 -0.126141 0.004332 0.331403 0.521697 0.060472 0.236893 0.125116 -0.080004 0.205152 -0.070232 0.078258 -0.180562 -0.050239 -0.339393 -0.320580 0.305968 0.075236 -0.081678 0.091706 -0.203155 -0.276407 -0.195421 -0.198847 -0.008304 0.076202 0.236352 -0.038124 -0.325307 -0.028265 -0.264539 0.067056 -0.207566
2425 0.010043 -0.101702 -0.040440 0.102926 -0.007235 0.099804 0.167135 -0.171970 0.013267 0.039120 0.144272 -0.210733 0.559885 -0.008629 -0.040346 0.477995 0.058438 0.043262 -0.103569 0.254775 0.152308 0.099869 -0.022652 0.077150 -0.290059 -0.181436 -0.104263 0.210133 -0.104943 0.174385 -0.349586 -0.299858 -0.397371 0.291431 0.263813 0.141386 0.244778 0.014684 0.132092 -0.039676 0.344033 -0.189498 -0.512773 0.369458 0.235356 -0.336537 0.054544 -0.029085 0.266640 0.449153 0.141686 -0.163361 0.163790 0.291482 -0.201868 0.223826 0.116287 0.060716 -0.182056 -0.148225 -0.164777 -0.045340 -0.405588 0.137289 0.348429 0.021869 0.097293 -0.200097 0.030658 0.018154 -0.073390 -0.206387 0.177406 -0.262105 -0.650662 0.273829 -0.122866 0.040662 0.112531 -0.252640 -0.065983 0.025594 -0.116442 -0.357215 0.017872 -0.001182 -0.402944 0.010471 0.086401 -0.016311 -0.218253 0.098358 0.071793 0.053166 -0.062904 -0.093696 -0.051501 0.286886 0.133128 0.132235 0.103754 -0.002465 -0.090715 0.170777 0.084645 -0.147872 -0.188066 -0.129214 -0.138152 -0.207420 -0.361764 0.202215 -0.061768 0.180833 0.173254 -0.013435 0.095072 0.193871 -0.035699 0.152500 0.004080 -0.091964 0.115912 -0.081216 -0.130894 -0.130687 0.094860 0.092845
2164 0.076623 -0.072344 -0.224292 -0.199228 -0.007448 -0.026639 0.003560 0.116640 0.335469 -0.011452 -0.271534 -0.016822 0.217817 0.075845 0.013222 0.209189 -0.051562 0.010251 0.336749 0.193770 0.129709 0.015180 0.207555 -0.215402 -0.170381 0.056823 -0.117028 0.124974 -0.098720 0.224062 -0.144253 -0.058099 -0.342936 0.412013 -0.318322 0.176406 0.077299 -0.125203 -0.085503 0.112651 0.212968 -0.214721 -0.346629 -0.030988 -0.121413 -0.126657 -0.299901 -0.085941 0.194603 -0.083285 -0.041853 0.008848 -0.050068 0.107596 -0.081086 -0.222678 0.076423 -0.053475 -0.052799 0.045117 -0.164917 -0.127751 -0.449890 0.217675 0.235122 -0.107318 0.122910 -0.024785 0.079990 -0.152321 -0.135224 -0.093702 0.074205 -0.145264 -0.017404 0.049006 -0.390948 -0.041107 -0.063236 -0.204985 -0.012472 0.293219 -0.166862 -0.173798 0.247110 0.170996 -0.067957 -0.105037 -0.227118 -0.042692 -0.117722 -0.201813 0.041573 -0.125400 0.033889 0.018574 -0.026933 0.087331 0.174802 0.103958 0.098847 0.059565 -0.175002 -0.169918 0.102530 0.130060 -0.076424 0.020839 -0.295499 -0.039541 -0.296295 0.238982 -0.296674 -0.186000 0.203491 -0.100530 -0.000004 0.207200 -0.047777 -0.271256 0.083256 0.102856 -0.131881 -0.004731 0.057822 -0.033398 0.253745 -0.264405
1126 -0.043338 -0.254212 0.083488 -0.030788 -0.234415 0.154760 -0.107286 0.117417 0.289303 0.050406 -0.106163 -0.157733 0.249259 -0.063918 0.084874 0.613625 0.166662 -0.241332 0.158558 0.258335 0.328981 0.210399 0.289449 -0.037272 -0.197888 0.116675 -0.022217 0.189750 0.057587 0.144338 -0.156034 -0.318167 -0.306365 0.259962 0.023889 0.263891 0.236802 0.040893 -0.034177 -0.001581 0.308821 -0.348626 -0.325141 0.177340 0.289493 -0.500201 0.153228 0.008428 -0.090847 0.233974 0.251629 0.173483 0.040190 0.453933 -0.126609 0.123549 0.005228 0.029150 -0.089957 -0.297008 -0.119447 0.138746 -0.182880 -0.013811 0.276157 0.028418 0.110511 -0.409752 -0.065398 0.180517 -0.176412 -0.232074 0.115233 -0.187896 -0.292679 0.081186 -0.109527 0.119071 -0.023781 -0.428227 0.141481 -0.098556 -0.162276 -0.144534 0.054961 0.162982 -0.323705 -0.085205 0.144214 0.099290 -0.083780 -0.067455 -0.092921 0.003311 -0.172912 0.006001 -0.017123 0.060402 0.095234 0.222690 0.070258 -0.038178 -0.173441 -0.183309 0.275655 -0.178783 -0.102479 -0.303330 0.017738 0.021090 -0.090278 0.297620 -0.060371 -0.120849 0.096571 -0.073670 -0.036521 0.068871 0.265725 -0.290577 0.265916 0.081930 -0.108043 -0.030326 -0.403164 -0.075310 -0.261722 0.153958
425 0.418409 0.109781 -0.008462 -0.022044 -0.208795 -0.016782 -0.073769 -0.007575 0.198685 0.060249 -0.130247 0.023827 -0.087251 0.017475 0.065376 0.131766 0.028451 -0.012353 0.021479 -0.002596 0.207663 -0.040275 0.169906 -0.010682 -0.287226 -0.094479 0.024937 0.181545 -0.131451 0.164838 0.004560 -0.222746 -0.363849 0.109466 -0.106137 0.235480 0.222306 0.046732 0.048170 -0.061445 0.133459 -0.009207 -0.534237 0.078878 0.134677 -0.016811 -0.061901 -0.312821 0.098448 -0.103000 0.069556 0.051558 0.006914 0.251904 -0.076600 -0.125532 0.183196 0.184055 -0.029753 0.158859 -0.162116 -0.179162 -0.198450 0.211596 0.452473 -0.072663 -0.117486 -0.068261 0.026501 -0.005155 -0.008877 -0.173426 -0.251285 -0.300226 -0.177530 0.035503 -0.412780 -0.235230 0.265812 0.002806 0.228657 0.149236 -0.015541 -0.371363 0.213811 0.125460 -0.159629 -0.118188 -0.272100 0.007579 -0.130089 0.039649 -0.123101 0.031396 0.141200 0.063209 0.485887 -0.059815 -0.110572 0.003480 0.020677 -0.022449 -0.088008 -0.095334 0.126426 -0.025277 -0.163846 -0.116402 -0.311108 -0.194686 -0.153768 0.361184 -0.094979 -0.171344 -0.058476 -0.178059 -0.113507 -0.039308 0.104706 -0.233220 0.010157 -0.044539 -0.176005 0.218899 -0.158956 -0.278330 0.313430 -0.152400
1167 0.162267 -0.133328 -0.489028 -0.006931 -0.236160 -0.118817 -0.215391 0.046438 0.235812 -0.048315 -0.073073 0.075610 0.197092 0.074882 0.040643 0.118773 -0.224635 -0.022544 -0.094641 0.000081 -0.003886 0.019261 0.187884 -0.332431 -0.298628 -0.063174 -0.010705 0.182918 -0.112310 0.279935 0.004507 -0.114008 -0.356884 0.461972 -0.047986 0.066109 -0.140208 -0.133628 -0.151276 0.158386 -0.129828 -0.200281 -0.213805 -0.059021 0.070833 -0.413594 -0.104741 -0.220201 0.079532 0.101873 0.036180 -0.134858 -0.112966 0.079641 -0.061294 -0.244875 0.102587 -0.229693 -0.124253 -0.018147 -0.189176 0.120257 -0.417043 0.118028 0.058546 -0.111480 0.131597 0.005735 0.204394 -0.118406 -0.241354 -0.231950 -0.321125 -0.225493 -0.419655 0.027202 -0.072669 -0.020664 -0.033790 0.168080 -0.112523 0.016207 -0.089875 -0.201125 0.256087 0.188780 -0.328536 -0.224493 0.019175 -0.021036 0.178117 -0.071249 -0.150835 0.066501 0.059876 0.045472 0.096642 0.010273 -0.097839 0.413149 0.028847 -0.002236 0.082288 -0.006014 -0.057177 -0.063790 -0.012545 0.088225 -0.244778 -0.117361 -0.394971 0.334526 -0.151023 -0.316153 0.144320 -0.392664 -0.168571 0.261097 -0.151693 -0.191535 0.138210 -0.023794 -0.064191 0.196134 -0.054092 -0.053335 0.397239 -0.106730
424 0.333108 0.055753 0.194172 -0.101872 -0.373007 -0.033457 -0.023580 0.160556 -0.010535 0.043731 -0.224897 -0.147809 0.024788 0.087848 0.001129 0.190257 -0.165921 0.185303 -0.080007 0.170000 0.160247 -0.286555 0.178492 0.027266 -0.156864 0.184874 -0.087859 0.142689 0.002912 0.495210 -0.283281 -0.310986 -0.370954 0.241886 -0.115772 0.262461 0.176436 -0.190138 -0.147020 -0.007073 0.106844 -0.205990 -0.400435 0.075017 0.202993 -0.065887 -0.022517 -0.188929 0.101566 0.103923 0.084280 -0.043455 -0.012520 0.263556 0.097233 -0.147338 0.083812 0.014333 -0.158744 0.083904 -0.148272 -0.194360 -0.338310 0.304565 0.347671 0.151856 0.200688 -0.057431 0.113530 0.007605 0.054268 -0.294428 -0.185517 -0.250804 -0.301675 0.012135 -0.093148 -0.071346 0.181009 -0.230685 0.333092 0.087138 -0.125055 -0.475791 -0.075758 0.282271 -0.100494 -0.183127 -0.068702 -0.109392 0.110002 0.303063 -0.234041 0.027660 -0.000527 0.184597 0.086115 -0.056354 0.022352 -0.047524 -0.003880 0.050199 -0.365149 -0.285444 0.095009 -0.131508 0.009440 -0.234681 -0.119473 -0.225398 0.029285 0.460525 -0.194796 -0.399192 0.060845 -0.116835 -0.154599 -0.279416 -0.075772 -0.280541 -0.043248 -0.019869 -0.154433 0.265985 -0.144324 -0.164140 -0.009649 -0.054324
2262 0.221297 -0.028471 -0.064071 -0.000761 -0.037405 -0.164341 -0.189456 -0.080659 0.200952 0.095929 -0.226961 0.142466 0.001766 -0.025070 -0.001911 0.043518 -0.161055 0.095846 0.010777 0.210336 0.276971 -0.089940 0.138677 -0.253847 -0.246127 0.033674 -0.022204 -0.028522 -0.137240 -0.048963 -0.111269 -0.194805 -0.118498 0.120549 0.145440 0.091312 0.350155 -0.065049 0.061418 0.203587 -0.028357 -0.012854 -0.259893 -0.057137 -0.026228 -0.426907 0.074797 -0.379812 0.240799 -0.016979 0.085157 -0.194780 -0.208006 0.013117 0.094918 -0.050933 -0.141237 -0.082341 0.028211 0.150423 0.114790 -0.042240 -0.335761 0.320963 0.302926 -0.193700 -0.037936 -0.134469 0.226747 -0.179848 -0.036297 0.060458 -0.122982 -0.181184 -0.087561 0.005767 -0.241951 -0.017569 0.164342 -0.418400 0.153993 -0.010819 -0.246906 0.147838 0.204874 0.322444 -0.284521 -0.113087 -0.017507 -0.085727 -0.158236 -0.113449 0.078997 -0.044758 0.129306 0.009388 0.351351 0.141249 -0.162527 0.158407 0.070219 -0.233348 -0.406712 -0.286795 -0.083831 0.281995 -0.153996 0.061407 -0.239182 0.187476 -0.074373 0.057357 -0.096841 -0.149989 -0.004702 -0.202816 -0.033430 0.159003 -0.124970 -0.102208 0.258161 0.188511 -0.248689 -0.159688 -0.095842 -0.049266 0.297340 -0.078023
1191 0.089592 -0.235683 0.013317 0.351512 -0.251578 0.191436 -0.185581 0.278493 0.170238 -0.065610 -0.292474 -0.005711 0.021242 -0.007842 0.052207 0.009602 -0.031358 0.390384 -0.105409 0.372249 0.062296 0.032852 0.319736 0.116398 -0.492171 -0.039467 -0.055637 0.278862 -0.367811 0.316317 -0.152919 -0.050343 -0.257944 0.392226 -0.015838 0.156194 0.139847 -0.244802 -0.072236 -0.083321 0.103160 0.206405 -0.124837 -0.167763 -0.028065 -0.232129 0.048061 -0.219736 0.070448 0.097187 0.077020 -0.016017 -0.187561 0.214240 0.000165 -0.067767 0.043023 -0.287527 0.020616 0.237415 -0.158330 -0.077967 -0.351860 0.249412 0.363345 -0.303048 -0.066527 0.090513 0.101569 -0.090677 -0.301049 -0.122473 -0.110428 -0.271266 -0.246514 0.003240 -0.240171 -0.180759 0.079653 -0.353946 0.178555 0.010681 -0.178333 0.037738 0.177673 0.021649 -0.078603 0.089926 -0.038337 -0.033124 -0.197928 -0.146540 0.041268 0.133667 -0.052564 -0.173232 0.021587 0.134073 0.064051 0.171442 -0.054805 -0.101613 0.008248 -0.021832 0.207087 0.076101 -0.171356 -0.064243 -0.182804 0.285080 0.120627 0.098028 0.090969 0.064687 -0.290646 -0.277682 -0.113301 0.061530 -0.126822 -0.141182 0.010494 -0.015235 -0.105087 0.228674 -0.024497 -0.158900 0.300251 -0.200042
2825 0.170275 -0.259123 -0.336328 -0.275386 -0.342768 -0.129023 -0.149505 0.027135 0.237083 -0.015212 -0.057232 -0.007712 0.262105 0.004261 -0.190881 0.303950 -0.283664 0.148912 0.245424 0.188117 0.052654 0.051043 0.177021 -0.100722 -0.164490 -0.043518 -0.268944 0.105977 -0.047276 0.146632 -0.242432 -0.025388 -0.015980 0.344003 -0.162210 0.235928 0.112757 -0.052749 0.049035 0.119945 -0.037831 -0.270930 -0.289738 0.231860 0.018867 -0.089356 -0.023942 0.177298 0.226260 0.152563 0.119409 -0.197000 0.002896 0.158323 -0.220334 -0.251130 -0.067279 -0.036257 -0.238053 0.220467 -0.295954 0.098666 -0.289431 0.178657 0.038592 -0.134398 0.234922 -0.407422 -0.105545 -0.047363 -0.269048 -0.199406 -0.068596 -0.072582 -0.403449 -0.027051 -0.374553 -0.121508 0.331222 -0.069767 0.110280 0.359437 -0.281986 0.087770 0.156617 0.135811 -0.113463 0.084123 -0.363937 -0.062787 -0.438611 0.107756 0.173704 0.079182 -0.140914 -0.079245 0.236428 -0.110969 0.100145 0.312951 -0.096409 0.212657 0.088726 -0.503125 -0.011947 -0.017896 -0.026167 0.105494 0.019080 -0.137556 -0.167838 0.425634 -0.109646 -0.271992 0.086362 0.086790 -0.009849 0.028712 0.020836 -0.259289 -0.111055 0.073598 -0.170555 -0.068187 -0.056272 -0.099341 0.167603 -0.364788
2467 0.235732 -0.018343 -0.119889 -0.027928 -0.152869 -0.241478 0.132201 0.217974 0.142080 -0.076364 -0.322583 0.362231 0.171252 0.141768 -0.069126 0.358136 -0.075395 0.036533 -0.143864 -0.011514 0.121753 -0.005699 0.066093 0.091983 -0.190642 -0.079562 -0.301894 0.071487 0.000494 0.041614 -0.092583 -0.191593 -0.105085 0.445103 0.082202 0.450628 0.033385 -0.035884 0.117058 0.129749 -0.014868 -0.241627 -0.134720 -0.108872 0.052651 -0.156155 -0.018096 0.022046 0.097037 0.354409 0.018016 -0.050733 -0.074601 0.160629 -0.196273 -0.065931 0.112741 0.012751 -0.012016 0.075533 -0.005738 0.009575 -0.144793 0.070921 0.231930 -0.229202 -0.031756 0.008112 0.047384 -0.205824 -0.183224 -0.213638 -0.027542 -0.437618 -0.326751 -0.169167 -0.246744 -0.239137 0.203754 -0.226346 0.090502 0.192639 -0.141005 -0.139163 0.207699 0.181312 -0.091682 -0.195825 0.063569 0.086872 0.035001 -0.215942 0.008982 0.150644 -0.197105 0.058434 0.180769 -0.145571 0.290598 0.373509 0.276194 -0.214653 -0.033633 -0.182927 0.139959 -0.280865 0.195844 0.095542 -0.322297 -0.068409 -0.213017 0.426125 -0.175167 -0.074706 -0.045079 -0.132110 -0.084571 0.182546 -0.109567 -0.075314 -0.041429 0.202751 -0.076053 0.016961 0.094456 0.057499 0.408330 -0.094301
2163 0.154757 -0.211976 -0.127459 0.041779 -0.319951 -0.065173 -0.179673 -0.054748 0.224935 0.029273 -0.028882 0.274202 0.050911 -0.301843 0.225981 0.366568 -0.247477 0.029489 0.313539 0.088547 -0.037725 -0.080127 0.333850 0.057292 -0.082717 0.083514 -0.192563 0.142787 0.021439 0.039682 -0.197093 -0.169673 -0.374148 0.484973 -0.007284 0.181835 0.064518 0.004217 -0.125130 -0.023528 -0.028568 -0.367425 -0.273938 0.138615 -0.232792 -0.097751 -0.091901 0.054107 0.210325 0.355273 0.374895 -0.220875 -0.112198 0.144358 -0.284621 -0.246452 0.087118 -0.165462 -0.185778 0.065367 -0.298233 -0.250261 -0.315041 0.222140 0.197931 -0.088129 0.100786 -0.237697 0.105534 -0.280091 -0.075354 -0.134951 -0.031439 -0.273632 -0.180752 0.184249 -0.387199 -0.162728 -0.194118 -0.052739 0.262605 0.341731 -0.232223 -0.056862 0.323487 0.259285 0.028454 -0.103884 -0.011455 0.039438 -0.023459 0.053586 -0.038342 -0.130621 0.029011 0.247157 0.009453 -0.060047 0.257342 0.219953 -0.164129 0.131955 0.070179 -0.349761 0.278570 -0.021433 -0.085188 -0.133858 -0.257546 -0.080675 -0.044709 0.383424 -0.201031 -0.120385 0.102954 0.069657 0.058720 0.072303 -0.038063 -0.180613 -0.029743 -0.204508 0.100774 0.099906 -0.203947 -0.072048 0.179828 -0.018821
1132 0.135113 0.102535 0.242170 -0.202193 -0.338436 -0.164247 0.050944 0.010731 0.296079 -0.081280 -0.106604 -0.199514 0.169015 0.384615 0.155990 0.512566 -0.226020 -0.002783 -0.191884 0.246018 0.046494 -0.043320 -0.003615 0.224858 -0.291610 -0.113306 -0.162659 0.185758 -0.142022 0.049700 -0.356639 -0.132927 -0.258508 0.434032 -0.014023 0.206550 0.112562 -0.109978 -0.109609 0.245134 -0.035428 -0.196039 -0.119397 0.313745 -0.060715 -0.310915 -0.136207 -0.159345 0.035055 0.199375 0.106826 0.007523 0.140385 0.282048 0.027132 -0.045046 -0.059919 -0.048636 -0.175863 0.217041 0.080993 -0.340902 -0.463914 0.503286 0.200482 -0.007825 0.101105 -0.103459 -0.237270 -0.088564 -0.002344 -0.167659 0.012762 -0.210829 -0.305204 0.084924 -0.165628 -0.105896 -0.225691 0.003642 0.339972 0.093506 -0.073683 -0.431014 0.062173 0.115098 -0.187271 -0.039997 -0.048747 -0.062790 -0.184256 -0.043298 -0.155057 0.060805 0.131966 0.191340 -0.090478 -0.082155 0.007278 0.041797 -0.217733 0.064183 -0.079055 -0.135775 0.172105 -0.135502 -0.037566 -0.299536 -0.292380 -0.023591 -0.287292 0.448942 0.068080 -0.201153 0.003071 -0.129304 -0.275153 -0.099919 -0.105408 -0.116972 0.148224 0.259613 0.100235 0.139878 -0.063858 -0.116260 0.294755 -0.149453
1133 0.022327 -0.069220 0.050858 -0.165786 -0.203540 -0.149332 -0.062701 0.070727 0.267182 -0.111577 0.020541 -0.173335 0.124229 0.260002 0.159611 0.358386 -0.174339 -0.066038 0.012825 -0.002819 0.193969 0.131921 0.073349 0.023503 -0.349605 -0.098830 -0.002164 0.190607 0.007457 -0.135783 0.108393 -0.361097 -0.173209 0.275682 0.122892 0.247302 -0.005996 -0.215551 -0.191131 0.274173 -0.027661 -0.092965 -0.247675 0.131371 0.079569 0.043527 -0.117021 -0.403355 0.122260 0.178962 -0.012160 0.118196 0.100787 0.151513 -0.164484 -0.088961 0.165430 0.020939 -0.022994 0.129249 0.027665 -0.232572 -0.390924 0.296733 0.386748 -0.051136 -0.030588 -0.124292 -0.035223 -0.217496 -0.038565 -0.077523 -0.151608 -0.029548 -0.314069 0.203231 -0.414985 -0.308485 -0.057594 -0.211834 0.281950 -0.131774 -0.084236 -0.219553 0.280649 -0.030179 -0.070612 -0.062310 0.018012 -0.091946 -0.073230 -0.148245 -0.077254 0.018497 0.027488 -0.175787 0.167449 0.231316 0.154559 0.188155 0.288412 0.107640 -0.182291 -0.110313 0.188309 0.154833 -0.010608 -0.181999 -0.171963 -0.121447 -0.134342 0.354910 -0.086915 -0.024742 0.037904 -0.108172 -0.097317 -0.243750 -0.107613 -0.175970 0.080966 0.156198 -0.014320 0.034668 -0.048469 0.022632 0.396948 -0.202689
3345 -0.009719 -0.236090 0.050785 0.042491 -0.326118 0.064169 -0.080186 -0.479367 -0.025737 -0.105519 0.042498 -0.245931 0.365978 -0.022625 0.199154 0.303183 -0.119695 -0.384841 -0.002233 0.289393 0.413954 -0.052485 0.443357 0.225098 -0.223788 0.087457 -0.251994 0.106485 0.470561 0.051999 -0.273492 -0.310228 -0.558131 0.279415 0.090678 -0.020397 0.336429 -0.052340 -0.117390 0.022315 0.310325 -0.176010 -0.571200 0.042873 0.119018 -0.111587 0.084906 -0.060499 0.215177 0.225688 0.217524 -0.029640 -0.021596 0.258068 -0.200172 -0.123846 0.276750 0.245647 0.003981 -0.264918 -0.085250 -0.013815 -0.189235 0.184413 0.342225 0.309874 0.050705 -0.286888 0.090402 0.172731 0.046441 -0.156487 0.069599 -0.281958 -0.587965 0.258086 0.061088 0.078601 0.121988 -0.137387 0.245341 -0.077469 -0.120419 -0.122184 0.060586 0.199891 -0.346641 0.157286 -0.054791 -0.155904 0.211225 -0.037665 0.012063 0.166529 -0.058628 -0.344175 -0.079387 -0.204056 0.242577 0.455574 0.070173 0.144812 -0.037150 0.150574 0.281566 -0.071357 0.120702 -0.376089 0.009196 -0.021450 -0.215161 0.255972 -0.226301 -0.139004 0.127314 -0.154953 0.108223 0.140179 0.111672 -0.075804 0.373011 0.233655 -0.174279 -0.138855 -0.074062 -0.171407 0.049151 0.079628
1400 0.215759 -0.031897 -0.066312 -0.064798 -0.266355 0.053032 -0.025415 0.054795 -0.011789 -0.064765 0.026619 0.084232 0.290809 -0.137373 -0.112967 0.403945 0.036381 0.146584 0.017761 0.018416 0.138140 -0.210093 -0.093339 0.064378 -0.043513 0.123675 -0.102532 0.057046 -0.060222 0.213025 -0.243377 -0.178698 -0.271177 0.409967 0.171416 0.237581 0.185320 -0.182530 0.075281 -0.037885 0.113834 -0.084621 -0.263774 0.159407 0.173850 -0.340369 0.226715 0.004776 0.062819 0.249302 0.185821 0.024083 -0.033948 0.426666 -0.228493 0.055606 0.320682 -0.152327 -0.064869 0.062758 0.083194 -0.020641 -0.279634 0.289407 0.333406 -0.032016 -0.037759 -0.180125 0.156525 0.104953 -0.202469 -0.222660 0.103091 -0.132460 -0.577059 0.200438 -0.406231 0.350371 -0.098798 0.079255 0.113357 0.229612 -0.131581 -0.192091 0.170194 0.342039 -0.538476 -0.139194 -0.076279 0.009951 -0.447211 0.057471 -0.194278 -0.123428 0.097459 0.168792 -0.123872 -0.039104 0.332688 0.298232 0.219933 -0.026668 -0.064205 -0.052627 0.478350 0.053869 0.083549 -0.089405 -0.108905 -0.068430 -0.155742 0.231691 -0.224086 0.002757 -0.421784 -0.076878 0.074312 0.197652 0.024088 -0.190438 0.111782 0.020094 0.068668 -0.241171 -0.023031 0.025316 -0.060568 -0.051711
1877 -0.108091 -0.174551 0.004858 0.191255 -0.393761 0.153316 -0.168581 -0.427212 0.127854 -0.086992 -0.059865 -0.204366 0.328257 0.032730 0.128926 0.474248 -0.247363 -0.126681 0.012089 0.402330 0.393971 0.060766 0.331487 0.048938 -0.304601 0.094192 -0.250385 0.140308 0.282940 0.237368 -0.344973 -0.280416 -0.362533 0.365638 0.082397 0.214577 0.460840 0.186986 -0.071891 -0.046742 0.214153 0.102536 -0.439731 -0.017366 0.138779 -0.122184 0.212800 0.087595 0.074936 0.298559 0.229700 -0.117567 0.153174 0.274334 -0.078629 -0.032133 0.290933 0.108458 0.181166 -0.192244 -0.102206 -0.005198 -0.036055 0.137665 0.544559 0.204325 0.048154 -0.267865 0.139048 0.196268 -0.178874 -0.316555 0.103143 -0.289519 -0.569993 0.219678 -0.138127 0.145991 -0.055606 -0.083000 0.145505 0.132426 -0.068699 -0.041962 0.175197 0.280071 -0.292919 -0.048304 -0.040150 -0.055023 0.076502 -0.017343 0.122658 0.196869 0.094122 -0.047853 0.078505 -0.066176 0.149565 0.514467 0.090981 0.103234 -0.202982 -0.042764 0.403441 -0.145849 0.178872 -0.297843 0.010972 0.071009 -0.211936 0.209694 -0.058450 -0.244350 0.083017 -0.147671 0.060325 0.072593 -0.018599 0.044006 0.113823 0.165778 -0.122466 -0.397806 -0.044064 -0.175662 -0.060874 0.075339
3421 0.065431 -0.066063 -0.007170 0.120332 -0.251822 0.022939 -0.130539 0.166033 0.124670 0.134732 -0.079538 0.172622 0.002218 -0.054396 0.041639 0.079002 -0.178714 0.036049 -0.042448 -0.065918 0.290168 -0.123701 0.104899 -0.476983 -0.318577 -0.155773 0.110125 0.051325 -0.340858 -0.165373 -0.211584 -0.281150 0.077544 0.236146 0.480614 -0.026576 0.094429 -0.254019 0.036886 0.291871 0.144955 -0.265393 -0.105925 0.012118 -0.060963 -0.358321 -0.002418 -0.371009 0.076001 -0.054869 0.175548 -0.175538 -0.105814 0.277399 0.135312 -0.028142 -0.086775 -0.045285 -0.314391 0.119540 -0.047076 0.028232 -0.236891 0.043046 0.126236 -0.133382 -0.076505 -0.113568 0.254785 -0.174530 -0.031453 -0.062727 0.115119 -0.304263 -0.262510 -0.062917 -0.376830 -0.093942 0.132316 -0.317522 0.216181 0.212639 -0.162983 0.158040 0.075108 0.410571 -0.019685 0.023016 0.065363 -0.258260 -0.202728 -0.271073 -0.098646 -0.081744 0.069360 -0.131448 0.341803 -0.002270 0.014632 0.099335 0.122902 -0.306010 -0.303591 -0.351672 0.078789 0.089209 -0.020125 -0.055362 -0.109375 0.092904 -0.080777 0.246909 0.106120 -0.374175 0.178830 -0.150456 -0.197173 0.150002 -0.078735 0.140371 0.212145 0.271508 -0.221996 0.062391 -0.010500 -0.219171 0.351571 -0.169148
2356 0.163282 -0.269878 -0.061080 -0.015819 -0.136226 0.124146 -0.128882 -0.009703 0.401470 0.211186 -0.132501 -0.010543 -0.032416 -0.156186 0.020542 0.249118 -0.070217 -0.008521 0.036938 0.255466 -0.082197 0.158712 0.106795 -0.126826 -0.102395 0.013773 -0.097064 0.158748 -0.110845 0.024435 -0.105127 -0.096980 -0.089871 0.217336 0.041563 0.219808 0.169572 -0.002462 -0.094332 0.087628 -0.030529 -0.034534 -0.360392 0.012275 -0.054234 -0.269141 -0.053594 -0.232933 0.190446 0.166948 0.074608 0.069778 -0.228154 0.004421 -0.083094 -0.106393 0.051565 -0.088088 0.077287 0.138052 -0.024403 -0.124870 -0.418270 0.322925 0.208524 -0.088050 0.076098 -0.098965 0.042313 -0.225626 -0.155288 -0.106385 0.116835 -0.243408 -0.334933 0.100873 -0.332080 -0.254276 0.148400 -0.260962 0.277236 0.084572 -0.220562 -0.053202 0.161977 0.109328 -0.191020 -0.032149 -0.081785 -0.170448 -0.190573 -0.156589 -0.139150 0.051850 0.081347 -0.042513 0.234394 0.076697 0.064828 0.112939 0.058627 0.147272 -0.076134 -0.125901 0.041664 0.110379 -0.077408 0.038027 -0.237480 0.016783 -0.045410 0.279799 -0.088951 -0.165605 0.099484 -0.127860 -0.058736 -0.034925 -0.070187 -0.184796 0.051992 0.124726 -0.059481 -0.067052 -0.014054 -0.138378 0.075934 -0.227904
1401 0.024547 0.010650 -0.227968 0.098998 -0.325023 0.101167 0.079150 0.172494 0.055926 -0.473961 -0.179956 0.238523 0.107199 -0.228098 0.067970 0.470130 -0.157149 -0.215784 0.004159 -0.209376 0.259984 -0.012715 -0.040706 -0.105177 -0.057940 0.050838 -0.037644 0.136334 -0.053476 0.120478 -0.032878 -0.239751 -0.068958 0.550141 0.132973 0.275412 0.256954 -0.177369 0.030164 -0.026807 -0.020040 -0.063390 -0.477204 -0.123072 0.280079 -0.110010 -0.007735 -0.192045 0.199608 0.168346 0.122382 0.087772 0.065982 0.151943 -0.011907 -0.021844 0.223480 -0.246999 -0.049335 0.128402 -0.204384 -0.032861 -0.094724 0.278388 0.329187 -0.299280 0.060861 -0.143557 0.218250 0.077250 -0.269999 -0.059006 0.120112 -0.501095 -0.320238 -0.008103 -0.090471 0.277146 -0.170032 -0.196971 -0.042109 0.205716 -0.186223 -0.297431 0.166246 0.271112 -0.398987 -0.007407 0.108580 0.090468 -0.240023 -0.129436 -0.017050 0.056431 0.168454 -0.169867 -0.151745 -0.082062 0.070543 0.208061 0.062340 -0.087925 -0.107994 -0.164662 0.320872 0.202667 0.096908 0.007296 -0.319846 -0.087085 0.060941 0.272208 -0.324758 -0.024721 -0.251638 -0.140791 -0.051689 0.265895 -0.115373 -0.054709 0.198890 -0.072234 -0.059274 -0.121348 -0.170038 -0.095155 0.242099 -0.088271
1189 0.067192 -0.136227 0.115031 -0.115064 -0.296057 0.206245 -0.173499 -0.209357 0.210940 -0.102241 0.008216 -0.256800 0.030750 0.024753 0.198403 0.375094 -0.453760 0.189851 -0.212360 0.376981 -0.017048 -0.214008 0.248239 0.058375 -0.378093 -0.019469 0.057494 0.175843 -0.116625 0.293230 -0.003517 -0.136581 -0.439288 0.322201 0.138167 0.350910 0.324844 -0.015964 -0.200777 -0.005678 0.089602 -0.001083 -0.143434 0.031120 -0.046480 -0.251160 0.234733 0.167132 0.166616 0.119664 0.145650 -0.166222 -0.151570 0.151632 0.240564 0.181231 0.042892 0.107621 -0.176040 0.127015 0.046868 -0.048078 -0.140991 0.338508 0.228708 -0.056564 -0.093742 -0.239460 0.059520 -0.298031 -0.151040 -0.413232 -0.128548 -0.387806 -0.495607 0.065402 -0.305597 -0.175748 0.254969 -0.366844 0.169362 0.097747 0.076911 -0.138521 0.156645 -0.003045 -0.039508 0.079271 -0.225484 0.114739 -0.128817 -0.089241 0.008326 -0.113806 0.090686 -0.018472 -0.129453 0.035879 0.333417 0.305766 -0.056301 0.052181 0.047981 0.057748 -0.060982 -0.168298 -0.178498 -0.129014 -0.114630 0.124154 -0.095684 0.299216 -0.206957 0.095403 0.033240 -0.330961 0.077884 0.035531 0.049270 -0.230862 0.076548 -0.114295 -0.033533 -0.083494 0.059327 -0.265480 0.071306 0.241793
3394 0.022809 0.134499 -0.018670 0.170382 -0.250497 0.027028 -0.196655 0.182363 -0.109727 0.052952 -0.041719 0.151833 0.036201 0.020665 -0.105541 0.144915 0.105034 0.131694 -0.041897 -0.081105 0.139503 0.295498 0.146927 -0.307381 -0.303573 0.030664 0.086269 0.013247 -0.152118 0.037743 -0.169341 -0.022127 -0.168626 0.333792 0.128325 -0.012808 0.177886 0.011071 -0.078326 0.099952 0.081085 0.156256 -0.373613 -0.171327 -0.104770 -0.299621 0.064990 -0.178092 0.157876 0.254296 -0.040557 -0.012227 0.088252 0.175210 -0.176660 -0.060287 -0.042904 -0.191157 0.010004 0.157734 -0.269032 0.003374 -0.371116 0.071909 0.218981 -0.226927 0.204273 0.017525 0.349495 -0.220105 -0.163044 -0.069007 0.192768 -0.374335 -0.168985 -0.009547 -0.416208 -0.154238 0.044320 -0.499414 0.036574 0.109482 -0.322549 -0.174569 0.066524 0.116754 -0.156911 0.085100 0.128614 -0.222122 -0.241140 -0.138420 0.198123 -0.038006 0.078609 -0.022499 0.034629 0.158123 0.084486 0.415997 0.086425 -0.206292 -0.175223 0.089067 0.027426 -0.097094 -0.048271 0.067107 -0.198808 0.068215 -0.144183 0.399110 -0.058941 -0.014480 -0.062881 -0.207507 0.021043 -0.001080 -0.179276 0.041283 0.191592 -0.021169 0.061109 0.097336 -0.343657 -0.049472 0.135902 -0.239202
2465 0.398196 -0.097637 -0.163538 -0.070565 -0.167939 -0.143724 -0.043736 0.301668 0.197950 0.052160 -0.057153 0.206948 0.099407 -0.046256 -0.017272 0.484310 -0.185487 0.176947 -0.047195 0.163844 0.085415 0.147436 0.064107 0.091666 -0.196503 -0.023969 -0.412134 0.139777 0.149727 0.093862 -0.294183 -0.140713 -0.099191 0.580907 -0.102023 0.519041 0.068015 0.014489 0.099377 0.145545 0.110188 -0.329164 -0.034773 -0.013005 0.029435 -0.217447 -0.244100 0.048709 0.138661 0.501387 -0.022892 -0.285651 -0.293953 0.132319 -0.307471 -0.101295 0.217664 0.004083 -0.083397 -0.156363 -0.007236 -0.017374 0.001787 0.147876 0.285891 -0.236955 0.095503 -0.098373 -0.012549 -0.108977 -0.155900 -0.393304 -0.071331 -0.309176 -0.437583 0.029204 -0.052519 -0.184014 0.046044 -0.125966 0.121304 0.388288 -0.053715 -0.236020 0.246642 0.077374 -0.158260 -0.295690 -0.064355 0.084118 0.108006 -0.162565 0.075460 0.164879 -0.170441 0.201622 0.030273 -0.131974 0.291877 0.477020 0.121423 -0.000576 0.045717 -0.043961 0.008767 -0.433126 0.043295 0.014289 -0.313094 0.041316 -0.214836 0.471621 -0.203398 -0.049693 -0.170404 -0.121371 0.020824 0.140679 0.048202 -0.108068 -0.092975 0.276885 -0.167572 -0.012106 0.084893 -0.017948 0.258473 -0.158329
2075 -0.193392 0.012418 -0.109250 0.327945 -0.240444 -0.265557 -0.137592 0.059921 0.033982 -0.194552 -0.171090 0.281197 0.403381 -0.014120 -0.165634 -0.123288 0.061768 0.144232 0.195030 0.276692 0.341544 0.111857 0.231383 -0.187146 -0.448913 -0.184061 -0.029087 0.149502 -0.155950 -0.034063 -0.053025 -0.290140 -0.401431 0.378088 -0.087681 0.016213 0.229255 -0.052787 0.104702 0.165489 -0.053500 -0.118261 -0.257733 0.063618 -0.082749 -0.350418 0.056078 -0.333595 0.305454 0.145565 -0.112720 0.352296 0.149663 0.260564 -0.114435 -0.268602 0.134451 -0.105661 -0.074229 0.185407 -0.114604 -0.005169 -0.182351 -0.012785 0.031876 -0.258908 -0.021089 -0.114380 0.301035 -0.204672 -0.114689 -0.135684 -0.065320 -0.312353 -0.160993 -0.014584 -0.344683 -0.148408 0.090019 -0.493682 0.029080 0.202859 -0.116475 -0.031937 0.166244 0.209391 0.032876 -0.023482 0.139141 -0.249734 -0.297865 -0.113755 -0.257530 0.017369 0.005411 0.194079 0.069811 0.026243 0.071633 0.257704 0.173643 -0.049609 0.044855 0.047713 0.096280 0.240955 -0.219896 -0.137168 -0.243197 -0.029225 -0.159786 0.078094 -0.183472 -0.130146 -0.189531 -0.078215 -0.134085 0.025572 0.020985 0.079125 0.050586 0.181741 -0.324483 -0.113188 -0.141065 -0.077811 0.057315 -0.032309
1875 0.077826 -0.200925 -0.033149 -0.019453 -0.312843 0.158566 -0.016584 -0.515295 0.207919 -0.087276 -0.133786 -0.169628 0.336864 0.027268 0.016860 0.569970 -0.058376 -0.133439 -0.019404 0.339373 0.048846 0.150874 0.253413 0.060302 -0.025404 -0.075429 -0.152923 0.132851 0.423919 0.253401 -0.099290 -0.288724 -0.243314 0.367411 -0.034311 0.120961 0.365133 0.064418 -0.041057 0.288969 0.220212 -0.174597 -0.411659 0.057886 0.040026 -0.187995 0.137664 0.043278 0.187311 0.221812 0.432406 -0.074422 0.106118 0.228503 -0.088813 0.087615 0.290688 0.121287 -0.122137 -0.197758 -0.170742 -0.222546 -0.238183 0.229283 0.526623 0.190751 0.086743 -0.347598 0.077625 0.240292 -0.288934 -0.476941 0.165562 -0.297281 -0.327553 0.051467 -0.100212 0.129346 -0.061122 -0.126249 0.162087 0.114701 0.006032 -0.130722 -0.006872 0.146722 -0.233450 -0.000237 -0.037058 0.088790 -0.025153 0.074417 -0.003003 0.140927 -0.035323 -0.014660 -0.007459 -0.262759 0.240149 0.437211 0.216169 0.021497 0.099155 -0.058503 0.244757 0.000151 0.151073 -0.377494 0.115376 -0.052539 -0.248238 0.268880 -0.002823 -0.308995 0.243793 -0.178271 -0.115797 0.177786 0.018246 -0.173262 0.069448 0.195661 0.038384 -0.373164 -0.080966 0.081937 -0.086495 0.006234
1012 0.097777 0.075902 -0.084154 0.181257 -0.458232 -0.045162 -0.032075 0.161328 0.057232 -0.070099 -0.093783 -0.032865 -0.128854 0.193150 -0.085825 0.045311 -0.184221 0.247718 -0.016192 0.023208 0.396049 0.105288 0.115486 -0.439237 -0.117621 0.241655 0.141407 0.135129 0.048218 0.331906 0.061643 -0.379142 -0.149566 0.242306 0.032367 -0.052615 0.253374 -0.193585 -0.132796 -0.289995 0.018753 0.061097 -0.298944 -0.028224 -0.050771 -0.117779 -0.172680 -0.274812 0.288686 0.044573 0.131924 0.000825 -0.139670 0.219051 -0.193915 -0.109915 -0.010615 -0.148956 -0.259953 0.042156 -0.272926 -0.045143 -0.033967 -0.148302 0.231812 -0.145216 0.140104 -0.166583 0.079783 -0.181427 -0.222853 0.136649 -0.004519 -0.410850 -0.191392 -0.087476 -0.214512 -0.190628 -0.009388 -0.198597 -0.023655 0.104200 -0.233966 -0.069858 0.276253 0.047890 -0.255347 0.198311 -0.069112 -0.389424 -0.336851 -0.100913 0.108368 -0.030500 0.155601 0.059371 -0.007655 0.118856 -0.055485 0.288574 0.352198 -0.174461 -0.028744 -0.332077 0.150636 -0.071471 -0.108003 -0.125886 -0.258484 0.013851 -0.316420 0.035431 -0.024300 0.001223 -0.073616 0.017555 -0.183993 0.283961 -0.157936 0.005628 -0.083386 0.129772 -0.118325 0.215746 0.121307 0.165340 0.363365 -0.105641
2143 0.007353 -0.293972 -0.042813 -0.052333 -0.366538 -0.058288 0.024652 0.266878 0.117162 -0.078794 -0.123495 0.119823 0.131283 0.256428 0.117614 0.421097 -0.110971 -0.004554 0.150971 0.530582 0.094040 0.010661 0.126441 -0.048918 -0.400383 -0.148569 0.023824 -0.011630 0.023574 0.130372 -0.142964 0.041746 -0.111272 0.282542 0.320958 0.414259 0.240307 0.156066 -0.162767 0.444785 0.016328 0.006800 -0.377538 -0.007007 0.182005 -0.004932 -0.110422 -0.181770 0.187011 0.080922 0.243396 -0.038360 -0.205992 0.256864 -0.150071 0.261200 0.154147 0.084876 -0.255400 0.091403 -0.040586 -0.118768 -0.399425 0.092522 0.174286 -0.023214 -0.085233 -0.166753 0.073126 -0.192332 -0.018770 -0.251050 -0.102215 -0.386472 -0.549715 -0.095497 -0.384467 -0.110688 0.069433 -0.068584 0.341487 0.091842 -0.276257 -0.229318 -0.120896 -0.057154 -0.168199 -0.066508 -0.240891 0.102881 0.020092 0.173103 -0.020766 0.104471 -0.089267 0.270663 -0.111853 0.146789 -0.075536 0.353358 -0.142077 0.163494 -0.067647 0.054509 -0.105624 0.088214 -0.466871 -0.165880 -0.144548 0.159539 -0.261811 0.210697 -0.260214 -0.223749 -0.115804 -0.098363 0.119662 0.018879 -0.054848 -0.190714 0.250764 -0.097696 0.270840 -0.107085 0.090475 -0.146111 -0.100360 0.004146
2424 -0.027147 -0.062688 0.017638 -0.123873 -0.005265 0.211611 0.074658 -0.430114 0.260371 -0.052185 0.136494 -0.345572 0.324536 -0.128538 0.188012 0.510850 -0.035633 0.060462 0.070857 0.309050 0.333498 0.330850 0.234869 0.250191 -0.338657 -0.039095 -0.266751 0.228561 0.033777 0.225674 -0.434409 -0.184755 -0.336896 0.288887 0.057220 0.289275 0.309129 -0.000473 0.008567 -0.034471 0.133187 -0.158783 -0.443489 0.268532 0.140613 -0.239889 0.118287 -0.210964 0.134921 0.352236 0.235754 -0.060537 0.112947 0.359776 -0.099184 0.246697 0.227693 0.038570 -0.092596 -0.092968 -0.220703 -0.154475 -0.065797 0.151132 0.358075 0.017702 0.085849 -0.210987 0.099584 -0.052409 0.037878 -0.067735 0.016839 -0.296295 -0.677497 0.093398 -0.145809 -0.015906 0.218074 -0.034792 -0.058584 0.059420 -0.195152 -0.170196 -0.337368 0.068097 -0.475014 0.022325 -0.010520 -0.204595 0.080944 0.192561 0.012847 0.242372 -0.067570 -0.126867 0.025208 0.084242 0.347815 0.533833 0.019971 0.149861 -0.253547 -0.098840 0.190116 -0.091512 0.150472 -0.205989 -0.076316 -0.154851 -0.118919 0.296630 -0.252812 0.121762 0.233276 -0.118535 0.048950 0.029263 -0.148012 0.095267 0.036556 0.005595 -0.124586 -0.086771 -0.107029 -0.108212 -0.035769 -0.116522
1125 -0.109433 -0.317650 -0.043482 -0.022088 -0.369473 0.116168 -0.026916 -0.193068 0.350570 0.001287 0.063858 -0.315885 0.131530 -0.133461 0.192914 0.466671 -0.018455 -0.085403 0.186685 0.233158 0.158751 0.232733 0.305046 0.125501 -0.049386 0.015412 -0.340957 0.129477 0.281860 0.149989 -0.192358 -0.268127 -0.415255 0.305938 0.267241 0.187685 0.215190 0.096790 -0.134777 -0.055611 0.170318 -0.100105 -0.252470 0.194669 0.303861 -0.280499 -0.042819 -0.110415 0.038776 0.172385 0.378223 0.078923 -0.082096 0.025562 -0.188742 -0.019206 0.113249 0.056328 0.083566 -0.267580 -0.110563 -0.177627 0.030713 0.062422 0.552672 0.102951 0.009205 -0.449602 0.015154 -0.042100 -0.064489 -0.344521 -0.002444 -0.346365 -0.449439 -0.004928 -0.002183 -0.034251 0.102949 -0.307867 0.120207 -0.291693 -0.135052 -0.027157 0.037439 0.287611 -0.333669 0.015167 0.002612 -0.033713 -0.012755 -0.070594 -0.046853 0.001126 -0.172520 -0.001953 -0.176906 -0.058586 0.254744 0.592577 0.138268 0.058577 -0.265096 0.006882 0.299733 -0.168608 -0.025409 -0.426115 -0.026316 0.009554 0.006305 0.371852 -0.161854 -0.128106 -0.110567 -0.039247 -0.077286 0.127140 0.166470 -0.107454 0.057363 0.143820 -0.217971 -0.275920 -0.154974 -0.283879 -0.174079 0.112095
2826 0.136819 -0.050733 -0.240980 -0.146272 -0.185775 -0.076823 -0.120226 0.061671 0.220617 -0.166908 -0.267232 0.134355 0.209607 -0.050897 -0.059606 0.315648 -0.035859 0.069008 -0.012585 0.311144 0.142669 0.080738 0.080562 -0.067194 -0.219900 -0.194028 -0.307292 0.103020 -0.096422 0.228315 -0.202156 -0.056071 -0.167320 0.199396 -0.108153 0.156011 -0.038430 -0.257786 0.022789 0.149190 -0.042269 -0.198320 -0.328218 -0.035186 0.177348 -0.169154 -0.032408 -0.016331 0.055369 0.003920 0.010767 -0.214269 0.052067 -0.066371 -0.266666 -0.150899 -0.115126 0.052945 -0.222411 0.010223 -0.223512 -0.039838 -0.190873 0.070376 0.244967 -0.280379 0.220468 -0.221060 0.053974 -0.243707 0.001124 -0.159087 -0.131279 -0.241082 -0.295499 -0.012225 -0.280495 -0.038356 0.110595 -0.157015 0.021517 0.129100 -0.227967 -0.104786 0.239096 0.352365 0.162214 -0.156953 -0.041905 -0.074964 -0.278955 0.075967 -0.160005 0.130896 -0.088805 -0.087973 0.164279 0.071102 0.353953 0.457005 -0.015585 -0.041534 -0.094943 -0.279238 0.021255 -0.098115 0.140631 -0.030768 -0.234176 -0.094565 -0.144051 0.291783 -0.096152 -0.246273 0.078493 -0.006068 -0.124262 -0.007721 -0.101514 -0.134829 0.153148 0.148778 -0.182146 -0.035076 0.141086 -0.003955 0.290363 -0.308400
2145 0.155163 -0.052721 -0.180964 0.185835 -0.387620 0.054950 -0.172668 0.098980 0.031899 0.026554 -0.262284 0.154045 -0.015903 0.166232 0.159460 0.067754 0.012740 0.042274 0.138683 0.196862 0.027845 0.198648 0.247258 -0.083574 -0.257236 -0.028673 0.132631 0.229048 -0.070031 0.188706 -0.092660 0.012866 0.033685 0.273440 0.192637 0.222425 0.261140 -0.228507 0.047843 0.346583 0.125186 0.042182 -0.330201 0.057428 0.070112 -0.080655 -0.069956 -0.550024 0.210007 -0.074488 0.117576 -0.106171 -0.043052 0.160576 -0.104448 -0.056813 0.098201 -0.139287 -0.108397 0.113011 -0.119722 -0.008812 -0.308469 0.058142 0.194716 -0.130093 0.019956 -0.036567 0.058254 -0.232373 -0.138132 0.126106 0.067610 -0.320535 -0.508538 -0.185972 -0.158387 -0.221625 0.134512 -0.189529 0.424713 0.131347 -0.322932 -0.047800 0.084720 0.163993 -0.091419 0.127245 -0.104198 -0.212520 -0.199361 -0.139610 -0.013056 0.104797 0.048339 -0.007260 0.111440 0.168723 -0.021347 0.373986 0.127818 -0.196160 -0.152969 -0.151972 0.069272 0.130298 -0.262455 -0.101895 -0.177704 0.062615 -0.118408 0.277973 -0.113971 -0.059444 -0.278318 -0.102681 -0.029943 0.007307 -0.117371 0.019232 0.283099 0.037241 -0.251106 0.052033 0.125882 0.044534 0.088653 -0.223996
2844 -0.075670 -0.133851 -0.347502 -0.161279 -0.269246 -0.055959 -0.027678 0.170703 0.297160 -0.022871 -0.021741 -0.051497 -0.177178 0.218981 0.245293 0.513983 -0.029897 0.150454 -0.041859 0.583607 0.009331 0.231138 0.094163 -0.154076 -0.282544 -0.200483 -0.414497 0.314446 0.160180 0.225358 -0.106158 0.013754 -0.329103 0.229807 -0.052733 0.424955 0.178234 0.015091 -0.048312 -0.091249 -0.074899 -0.349911 0.068898 0.240339 0.061393 -0.168450 0.237081 0.150300 0.112700 0.266789 -0.106938 -0.164390 -0.103667 0.138373 -0.253512 0.124012 0.180077 -0.033439 -0.337169 -0.127969 -0.205362 -0.030608 -0.283078 0.099375 0.038157 -0.010597 -0.007579 -0.450095 0.093613 -0.117567 0.118519 -0.102180 -0.135277 -0.287658 -0.227483 0.090281 -0.268154 -0.123735 0.063793 -0.210771 0.119612 0.372767 0.076423 -0.304458 0.162204 0.099079 -0.241042 0.113598 -0.199061 0.101280 -0.119210 0.051269 -0.076356 -0.011132 0.129833 0.186299 0.070904 0.019839 0.188668 0.258436 0.190609 0.037702 0.020094 -0.278490 0.029813 -0.084671 -0.067069 -0.216217 -0.166937 -0.092619 -0.068945 0.412188 0.024253 -0.259097 0.089933 0.070387 -0.007683 -0.074143 -0.075843 0.010073 0.115533 0.196844 -0.094845 -0.132706 0.007084 -0.207770 0.321990 -0.193333
2074 -0.496615 0.067234 -0.139551 0.238062 -0.239527 -0.002518 -0.088284 -0.295955 0.222098 -0.129588 -0.114831 0.005509 0.366160 -0.014203 0.042700 0.141543 -0.059567 0.067697 0.275276 0.097174 0.020435 0.095803 0.250402 -0.125844 -0.565667 -0.112193 -0.090234 0.165131 0.045576 0.084911 -0.237151 -0.198862 -0.395413 0.387714 -0.176583 0.042727 0.306644 -0.052557 0.097021 0.167809 0.009775 0.053546 -0.255110 -0.030665 -0.097423 -0.278703 -0.113487 -0.120976 0.416757 0.118694 -0.095187 0.158478 0.160137 0.093514 0.015275 -0.102088 0.091028 -0.114873 -0.165699 -0.088062 -0.170710 0.044063 -0.097442 0.023415 0.177343 -0.334100 0.033239 0.040006 0.201532 0.049246 -0.287881 -0.532803 0.009160 -0.143508 -0.261383 0.174764 -0.386720 -0.059479 0.122326 -0.406874 -0.115927 0.151139 -0.126689 -0.172043 0.084522 0.190755 -0.199891 -0.034265 -0.123919 -0.183887 -0.077116 0.132154 0.061835 0.242987 -0.145962 0.227624 -0.100079 0.101384 0.226386 -0.002492 0.006403 -0.072229 -0.081682 0.001548 0.086104 0.080113 -0.116638 -0.290014 -0.017230 -0.087687 -0.131142 0.290376 -0.366215 -0.368574 -0.211728 -0.074231 -0.001256 -0.060814 0.008695 -0.208757 0.141531 0.296818 -0.265955 -0.178162 -0.231390 0.081529 0.270959 -0.058853
2427 -0.150491 0.120021 0.066463 0.339276 -0.062405 -0.124649 -0.074277 0.148905 0.216109 -0.049655 -0.123009 0.152626 0.246030 0.014441 0.038352 0.116369 0.113984 0.143927 -0.009350 0.066622 0.269592 -0.008556 0.167499 -0.062195 -0.410892 -0.264259 -0.031156 0.319798 -0.005634 0.286223 -0.339358 -0.220635 -0.396384 0.469607 0.002692 -0.009473 0.116136 0.065045 -0.005575 -0.015251 0.127637 -0.005525 -0.334286 0.045858 -0.153993 -0.166217 0.176225 -0.224677 0.129644 -0.054356 0.160877 0.129970 0.077632 0.174067 -0.088089 -0.052233 0.061911 -0.274374 -0.079486 0.079212 -0.149752 0.150159 -0.445138 0.006086 0.229943 -0.201773 0.182336 -0.079769 0.194792 -0.063414 -0.130400 0.155156 -0.041746 -0.443499 -0.283578 0.068795 -0.208051 0.035960 0.103651 -0.402987 -0.052640 0.100859 -0.143851 -0.099851 0.025872 0.141372 -0.046068 0.257146 -0.023060 -0.199878 -0.191413 -0.063003 -0.062162 0.035763 -0.004808 -0.225365 0.071831 0.244977 0.019212 0.250992 0.228136 -0.214458 -0.073342 0.043383 0.324693 -0.046544 -0.219675 0.088324 -0.309748 0.032039 -0.106187 0.199484 -0.186416 0.272988 -0.326725 0.036102 0.185658 0.193888 -0.123650 0.055837 0.031249 -0.000819 0.166960 0.105646 -0.152405 -0.199531 0.024076 -0.093477
1128 -0.107978 -0.049203 0.120945 0.355280 -0.070349 -0.234651 -0.194366 0.297687 0.235265 -0.049066 -0.237969 0.043745 0.277174 0.004683 0.190385 0.194292 0.071703 0.252360 -0.005940 0.287491 0.276847 0.101341 0.242579 -0.200744 -0.317635 0.099119 0.135509 0.376728 -0.156283 0.169156 -0.106411 -0.165164 -0.375982 0.483992 0.034285 0.157394 0.190590 0.034621 0.074009 0.097366 0.229124 -0.114211 -0.204749 0.044417 0.041205 -0.497821 0.152365 -0.404659 0.215777 -0.045294 -0.042077 0.139836 0.119446 0.202163 -0.191082 -0.133996 0.001645 -0.149061 -0.184304 -0.079461 -0.301978 0.072006 -0.258654 0.058279 0.329647 -0.100843 0.259734 -0.203333 0.098356 0.011454 -0.316040 0.011437 0.017091 -0.300289 -0.160808 -0.005591 -0.136181 0.323665 -0.222401 -0.446482 0.078530 -0.061043 0.026337 -0.010831 -0.049215 0.217606 -0.002705 0.049332 0.164038 -0.297995 -0.309118 -0.162522 -0.034952 -0.058021 -0.170882 -0.160656 0.178757 0.130873 0.023170 0.287466 0.083319 -0.268187 -0.238758 -0.003965 0.137844 -0.040563 -0.153579 -0.208141 -0.145047 0.049736 -0.152483 0.231706 0.027637 0.191008 -0.228031 -0.057683 0.118466 0.031035 0.219106 -0.122548 0.113473 0.035664 -0.171072 0.184540 -0.239898 -0.132631 0.008796 0.035538
1188 0.060889 -0.056667 -0.015663 -0.103151 -0.441911 0.101449 -0.325896 -0.299125 0.149262 -0.182362 0.125699 -0.230476 0.074486 -0.031367 0.162882 0.299104 -0.175590 0.074928 0.055072 0.399043 0.113803 0.009013 0.302744 -0.144974 -0.280068 0.071872 -0.302969 0.164331 -0.009862 0.261542 0.134341 -0.180228 -0.553929 0.048421 0.080012 0.455728 0.288204 0.191259 -0.386592 0.026551 0.154450 0.028302 0.024968 0.059254 -0.018422 -0.238932 0.157601 0.107526 0.191849 0.159521 0.013647 -0.226911 -0.104419 0.474931 0.003747 0.265123 0.019662 0.054436 -0.159100 0.110938 -0.073649 -0.204523 -0.018719 0.358292 0.245142 0.122709 -0.126809 -0.217814 0.205413 -0.242406 -0.016657 -0.436761 -0.188767 -0.428874 -0.591115 -0.025852 -0.265583 -0.089688 0.200423 -0.122560 0.096645 0.000509 -0.165347 -0.041013 0.054542 0.227000 -0.277829 -0.239415 -0.198387 0.149226 -0.028959 0.080726 -0.203621 0.068394 -0.079764 0.089158 -0.185567 0.248149 0.226467 0.123425 -0.003904 0.134261 -0.193557 -0.095365 -0.097597 -0.138343 -0.087252 -0.025670 -0.137168 -0.069838 0.097985 0.440968 -0.066683 -0.042130 0.047776 -0.251646 0.170155 -0.022881 0.125986 -0.088485 0.126050 0.090193 0.004720 -0.180638 0.074219 -0.051142 0.057826 -0.143495
3347 -0.028347 -0.022895 0.173929 0.252709 -0.126376 -0.032598 0.043683 -0.149998 0.065570 -0.317020 -0.308615 0.124606 0.558319 -0.129853 0.272084 0.346829 -0.035484 -0.233015 -0.091714 0.298107 0.198035 -0.025800 0.388621 -0.156829 -0.217287 -0.019129 -0.099819 0.177976 0.206222 0.021247 -0.405393 -0.186811 -0.409053 0.203242 -0.001534 0.038353 0.446147 0.197022 -0.182599 0.181612 0.372636 -0.099307 -0.329615 0.034436 0.129357 -0.189224 0.171467 -0.297858 0.228041 0.141373 0.257889 0.316300 0.205632 0.292707 -0.226608 -0.065507 0.066891 -0.147430 -0.011042 0.022220 -0.041893 0.095534 -0.009162 0.081452 0.441659 0.032962 0.127450 -0.339827 0.297270 -0.061775 -0.223621 -0.066640 -0.106007 -0.256049 -0.298771 0.203295 -0.273906 0.009491 -0.083217 -0.376380 0.074446 0.069276 0.109510 -0.189185 -0.070509 0.298704 -0.068837 0.295615 -0.072864 -0.136235 -0.114696 -0.038407 0.047186 0.194559 -0.005873 -0.378724 0.173837 -0.210669 0.070923 0.430964 0.214096 -0.251950 -0.083913 0.177191 0.206349 -0.190776 0.185953 -0.204056 -0.091302 -0.093569 -0.232918 0.200841 -0.148498 -0.013162 0.089789 -0.253211 0.118180 -0.120526 0.221882 -0.156398 0.328017 0.259840 0.069581 -0.005004 -0.132398 -0.236187 -0.121564 0.119904
2263 0.141693 -0.047871 -0.049907 0.185606 -0.043159 -0.168588 0.107738 -0.136047 0.183805 0.236488 -0.196800 0.141926 0.017038 -0.054299 -0.147966 -0.027852 -0.059081 0.402629 -0.295103 0.124576 0.035682 0.050316 0.056162 -0.117445 -0.457440 -0.031128 0.140317 0.198969 -0.208499 0.154669 0.021848 -0.211485 0.208677 0.079032 0.321314 0.170402 0.257431 -0.290797 -0.070007 -0.121928 0.174456 0.021654 -0.397038 -0.036074 -0.156257 -0.392544 0.030959 -0.440021 -0.042841 -0.168730 -0.176585 0.029466 -0.162403 0.300966 0.192248 -0.229860 -0.059154 -0.032365 -0.054828 0.078108 0.000870 0.079690 -0.327954 0.292651 0.263955 -0.240894 0.054862 -0.118973 0.177879 -0.257783 -0.130577 0.083332 -0.218129 -0.124693 -0.059833 0.124049 -0.090667 -0.215888 0.195573 -0.440726 -0.069944 -0.111038 -0.438107 0.263216 0.200558 0.490069 -0.274731 0.102984 -0.021502 0.045725 -0.238937 -0.375515 -0.011889 -0.203062 0.118058 -0.065710 0.398021 -0.190766 -0.257378 0.325512 -0.098831 -0.129388 -0.289078 -0.411410 0.038496 0.302386 -0.212015 0.337952 -0.364504 0.086587 -0.252237 0.289098 -0.057435 -0.097667 -0.027408 -0.138333 0.130570 0.072243 0.000591 -0.196251 0.438323 0.304905 -0.123877 0.207335 -0.125504 -0.012380 0.178925 -0.224951
1634 0.215497 -0.252954 -0.128923 -0.119076 -0.328327 -0.161752 -0.228455 -0.176946 0.203020 -0.109840 -0.052516 -0.059494 -0.074011 -0.018170 -0.047437 0.438053 -0.247427 -0.013427 -0.000510 0.219998 -0.060806 -0.045572 -0.073125 -0.182985 -0.126580 0.116889 -0.255782 0.008367 0.211283 0.211216 -0.237866 0.022265 -0.298613 0.139255 -0.224106 0.570224 0.340245 0.116166 -0.196462 -0.002468 0.025090 -0.132582 -0.088660 0.189548 0.081009 -0.169354 0.122109 -0.034417 0.259879 -0.024092 -0.073018 -0.077552 -0.246837 0.106364 -0.117279 0.023724 0.136305 -0.033504 -0.171803 0.155718 -0.170766 -0.163713 -0.249590 0.236667 0.166539 -0.021479 0.131235 -0.412061 0.043381 0.163198 0.187434 -0.238406 0.121391 -0.496820 -0.404100 0.131259 -0.343596 -0.037626 0.112810 0.001670 0.264902 0.080034 -0.200090 -0.347084 0.244611 0.120285 -0.017560 -0.205528 -0.103229 -0.078893 0.082227 0.169431 -0.194120 -0.099667 -0.162283 -0.010654 0.006426 0.090769 0.163285 0.307128 0.005527 0.017508 -0.072087 0.135488 -0.062415 -0.040407 -0.022930 0.052269 -0.453939 -0.097758 -0.155188 0.505889 -0.050220 -0.142719 0.191175 0.220388 0.054061 0.100117 -0.030330 -0.207854 0.113614 0.018923 -0.199235 -0.093657 -0.060641 -0.278133 0.211814 -0.229575
3419 0.041414 -0.195390 -0.232070 -0.055842 -0.476174 0.090551 0.100775 0.074920 0.240560 0.059553 -0.063948 0.145836 0.006752 0.138777 0.069627 0.224427 -0.098716 0.092672 -0.050752 0.146041 0.388976 -0.119377 -0.073091 -0.290874 -0.171752 -0.331335 -0.093780 0.044276 -0.261909 -0.125006 -0.027850 -0.326473 0.030034 0.384028 0.168688 0.011862 -0.096023 -0.421095 0.049659 0.236193 0.220986 -0.317512 -0.143200 0.117574 0.118940 -0.153335 -0.289233 -0.325327 0.191503 -0.045223 -0.225970 -0.210971 -0.323787 0.378156 0.041767 -0.006922 -0.000154 0.045022 -0.344121 -0.202326 -0.210669 -0.058992 -0.207021 0.155406 0.360682 -0.006097 0.008818 -0.123077 0.062174 0.200508 -0.138846 -0.168874 0.017087 -0.341349 -0.248880 0.057711 -0.487899 -0.264289 -0.106466 -0.128272 0.151234 0.231277 0.044784 -0.357660 0.182413 0.360908 -0.139513 -0.016109 -0.099635 -0.175161 0.091697 -0.292759 -0.079694 -0.017938 0.130210 -0.205608 0.175085 0.174629 0.297579 0.195038 0.078759 -0.128913 -0.229421 -0.102768 0.072822 0.083881 0.050468 -0.301516 -0.113235 0.028872 -0.110415 0.540636 0.155871 -0.230376 0.221309 -0.103481 -0.271354 -0.160479 -0.136975 0.203030 0.110333 0.193359 -0.180690 -0.003266 -0.011082 -0.088141 0.159641 -0.094788
3056 -0.184932 -0.070381 -0.153880 0.137818 -0.243383 -0.056222 -0.018778 -0.166783 -0.039225 -0.124442 0.220253 -0.125611 0.188396 -0.105343 -0.168154 0.341313 0.155879 -0.251225 -0.179042 0.245251 -0.121967 0.303654 0.110429 0.116632 -0.226177 0.107817 0.003191 0.308546 -0.162361 0.151966 -0.370594 -0.394481 -0.289466 0.188774 -0.056929 0.140582 -0.076836 0.200135 -0.056126 0.124586 -0.037787 -0.314315 -0.173724 0.214320 0.145264 -0.342076 -0.003206 0.019483 0.038371 0.088128 -0.001308 0.060238 -0.199748 0.444824 -0.011988 -0.006119 0.164777 0.026840 -0.447198 0.240658 -0.191297 -0.128795 -0.274855 0.131826 0.227410 -0.008135 0.048381 -0.164147 0.096206 0.073140 -0.007598 -0.436462 -0.060566 -0.307158 -0.560370 0.100889 -0.167861 0.131026 -0.058089 -0.376967 0.023118 0.123142 -0.117942 -0.098528 -0.068105 -0.063251 -0.398589 0.020363 0.030322 -0.305035 -0.289617 0.226414 0.102585 0.105519 0.240924 0.199108 0.113503 -0.213463 0.546104 0.248070 -0.065102 0.228418 -0.010314 -0.043197 -0.046128 0.114774 -0.066900 -0.187629 -0.273301 0.007201 -0.199603 0.408985 -0.112511 -0.071294 -0.041954 -0.005911 -0.025239 0.088321 0.281503 0.057119 -0.078731 0.069025 -0.182653 -0.031931 -0.262644 0.149712 -0.009839 -0.018577
1127 -0.262256 -0.099070 0.002446 0.148676 -0.144045 -0.152564 0.023346 -0.042362 0.387680 -0.146096 -0.246671 -0.058238 0.305924 -0.141840 0.127629 0.446722 0.077581 -0.125074 0.173238 0.136676 0.102788 0.097547 0.347586 0.014849 -0.134985 -0.064865 -0.174698 0.180425 0.052718 0.137143 -0.183010 -0.369256 -0.498210 0.217222 0.156172 0.054570 0.278432 0.042351 -0.058066 0.089951 0.140038 0.029000 -0.194028 0.118320 0.140984 -0.306193 0.113459 -0.315547 -0.095491 -0.115768 0.330228 0.305557 0.160249 0.133623 -0.154945 -0.094352 -0.033550 0.073188 0.070278 -0.105802 -0.126998 0.115417 -0.114034 0.148033 0.521623 -0.223327 0.379649 -0.352446 0.168001 -0.141965 -0.284141 -0.238613 0.029995 -0.443786 -0.349588 -0.097205 -0.333895 0.146581 0.229854 -0.362153 0.039901 -0.157672 0.089688 0.078150 -0.145175 0.339071 -0.320961 0.305672 0.027745 -0.115992 -0.127837 -0.000166 -0.099485 0.006569 -0.128596 -0.266027 0.236626 0.065283 0.116393 0.217689 0.169332 0.025947 -0.191380 0.003406 0.217035 -0.268566 0.131802 -0.109508 -0.169702 -0.068407 0.067206 0.371478 -0.164808 0.040121 -0.139240 -0.065326 0.030373 0.101903 0.191228 -0.214097 0.122722 0.106564 0.080782 -0.075794 -0.185108 -0.179650 -0.092803 -0.019055
1312 -0.118649 0.253988 -0.109228 -0.220045 -0.178756 -0.233166 -0.017344 -0.041501 0.094792 0.194327 -0.026884 -0.057878 -0.136134 -0.250482 0.132738 0.311114 -0.172548 -0.075624 0.002699 0.127595 -0.141442 0.311219 0.276447 -0.098088 -0.099422 0.064135 0.200531 0.111883 0.318080 0.366497 -0.309752 -0.524540 -0.161128 0.295266 -0.141607 0.351977 0.236983 -0.237798 -0.016335 0.109341 -0.084058 -0.265119 -0.386075 0.052902 -0.379938 -0.261078 0.287458 -0.135392 0.223835 0.233167 -0.073995 -0.182304 -0.142341 0.361714 -0.059459 0.061862 0.230189 -0.048125 -0.057925 -0.233028 0.107796 -0.087445 -0.449415 0.217304 0.067643 0.120733 0.277004 -0.324818 0.153175 -0.259029 -0.026883 -0.243280 0.033184 -0.249247 -0.541521 0.169372 -0.390990 0.163484 -0.076969 -0.063046 0.195079 0.148479 0.007354 -0.148026 -0.039909 0.097886 -0.202506 -0.102301 -0.175978 -0.313539 -0.129002 0.376565 -0.026881 0.033080 -0.049318 -0.174033 0.036569 0.099928 0.107781 0.465075 -0.105326 0.143541 0.201318 -0.208479 0.040034 0.094086 -0.074034 -0.345315 -0.115253 0.102716 -0.209520 0.121908 -0.128279 0.099140 -0.390589 -0.205729 -0.060947 0.296640 0.500973 -0.025098 0.022040 -0.202501 -0.150176 -0.284778 -0.029869 0.157213 0.043480 -0.249747
3348 -0.160136 -0.087400 0.139263 0.522167 -0.086033 -0.093561 -0.232797 0.057013 0.204979 -0.324359 -0.250994 -0.025384 0.349049 0.094871 0.085912 0.200567 0.216780 0.122406 -0.063772 0.172901 0.249243 -0.170657 0.410039 -0.065680 0.019645 0.095411 0.042234 0.100058 -0.204097 0.390507 -0.274859 -0.182496 -0.292280 0.497168 -0.045006 -0.094208 0.446550 0.027255 -0.062177 0.006910 0.298790 -0.062940 -0.165070 0.125405 0.000096 -0.139213 0.124104 -0.205342 0.036343 0.084636 -0.048144 0.290186 0.127188 0.273430 -0.290929 -0.133698 0.011813 -0.064388 -0.255975 0.075139 -0.402856 0.303671 -0.273257 0.030444 0.329094 0.017017 0.038739 -0.186792 0.294047 -0.063924 -0.274480 0.190201 0.027879 -0.256486 -0.247636 0.090382 -0.290780 0.147946 -0.084000 -0.585364 0.200613 -0.022505 -0.166582 -0.187955 0.095694 0.207627 0.157743 0.250982 -0.000705 -0.280810 0.076719 -0.091935 0.026906 0.030197 -0.010226 -0.368015 0.256385 0.097956 -0.078442 0.143485 0.394075 -0.360438 -0.126735 0.035319 0.217665 -0.276546 0.115904 0.047406 -0.082776 0.155218 -0.157021 0.338347 -0.063875 0.239478 -0.221237 -0.030566 -0.024480 0.122981 0.175760 0.003479 0.284379 0.229630 -0.040205 -0.091298 -0.467412 -0.197343 0.110893 0.042461
2073 -0.153612 -0.242136 -0.060092 0.178568 -0.271001 -0.184370 -0.097149 -0.206954 0.362233 -0.228749 -0.139480 -0.104438 0.315614 0.054500 0.038219 0.244225 -0.116865 -0.039858 0.118814 0.327322 0.266211 0.267957 0.197072 -0.045084 -0.551661 -0.091268 0.046619 0.249927 0.161641 0.132648 -0.169242 -0.637117 -0.417884 0.251884 -0.193701 0.047750 0.184161 -0.020251 0.227509 -0.004271 -0.199777 -0.258667 -0.153212 0.220844 0.084193 -0.317917 -0.019691 -0.209937 0.586859 0.240306 -0.026772 -0.029186 0.222865 0.286034 -0.211709 -0.011624 0.045755 -0.029962 -0.150021 -0.069558 -0.180195 -0.194015 -0.029419 0.071058 0.231992 -0.183470 -0.106753 -0.096464 0.068901 -0.108385 -0.055187 -0.519515 0.128994 -0.202549 -0.344358 0.176237 -0.092610 -0.041531 -0.082258 -0.311770 0.022659 0.414631 -0.289849 -0.167318 0.085335 0.136292 -0.295303 -0.185923 -0.003191 -0.071351 -0.171095 0.153741 -0.045332 -0.235370 -0.060791 0.388487 0.071673 -0.140498 0.222217 0.128597 -0.026309 0.059355 0.293080 0.121428 -0.082441 0.076973 -0.066467 -0.431788 0.123281 -0.191709 0.016574 0.379414 -0.119115 -0.155321 -0.081954 -0.247330 -0.126290 0.056405 0.118906 -0.070166 0.003199 -0.002561 -0.160084 -0.323415 -0.496716 0.066371 0.049898 0.020825
